{"learner":{"attributes":{"best_iteration":"113","best_score":"0.5948215817926797","scikit_learn":"{\"_estimator_type\": \"classifier\"}"},"feature_names":[],"feature_types":[],"gradient_booster":{"model":{"cats":{"enc":[],"feature_segments":[],"sorted_idx":[]},"gbtree_model_param":{"num_parallel_tree":"1","num_trees":"134"},"iteration_indptr":[0,1,2,3,4,5,6,7,8,9,10,11,12,13,14,15,16,17,18,19,20,21,22,23,24,25,26,27,28,29,30,31,32,33,34,35,36,37,38,39,40,41,42,43,44,45,46,47,48,49,50,51,52,53,54,55,56,57,58,59,60,61,62,63,64,65,66,67,68,69,70,71,72,73,74,75,76,77,78,79,80,81,82,83,84,85,86,87,88,89,90,91,92,93,94,95,96,97,98,99,100,101,102,103,104,105,106,107,108,109,110,111,112,113,114,115,116,117,118,119,120,121,122,123,124,125,126,127,128,129,130,131,132,133,134],"tree_info":[0,0,0,0,0,0,0,0,0,0,0,0,0,0,0,0,0,0,0,0,0,0,0,0,0,0,0,0,0,0,0,0,0,0,0,0,0,0,0,0,0,0,0,0,0,0,0,0,0,0,0,0,0,0,0,0,0,0,0,0,0,0,0,0,0,0,0,0,0,0,0,0,0,0,0,0,0,0,0,0,0,0,0,0,0,0,0,0,0,0,0,0,0,0,0,0,0,0,0,0,0,0,0,0,0,0,0,0,0,0,0,0,0,0,0,0,0,0,0,0,0,0,0,0,0,0,0,0,0,0,0,0,0,0],"trees":[{"base_weights":[-1.9448971E-3,-5.3467196E-1,1.0372553E0,-7.011431E-1,1.7801113E-3,1.1900165E0,5.602229E-1,-5.9502155E-1,-9.3433017E-1,-1.557705E-1,2.523305E-1,9.3874013E-1,1.307519E0,3.6156327E-1,8.195171E-1,-8.140111E-1,-4.280805E-1,-1.0500461E0,-8.813898E-1,-7.721123E-2,-5.741106E-1,-1.1357227E-2,3.7166062E-1,8.020189E-1,1.0600715E0,1.2257607E0,1.4802455E0,3.1034246E-1,6.5196246E-1,6.9826734E-1,9.373327E-1,-8.9605165E-1,-7.2456026E-1,-2.677955E-1,-6.8315977E-1,-1.0425893E0,-1.5470688E0,1.340047E0,-8.980923E-1,-4.3212366E-1,6.317784E-2,-7.430084E-1,-3.9550823E-1,9.9350326E-2,-3.5985163E-1,3.9230153E-1,-6.132042E-1,8.1286246E-1,2.0010504E-1,1.110559E0,9.4158006E-1,1.2708702E0,1.1548456E0,1.4051468E0,1.6242287E0,8.232485E-2,3.593599E-1,6.7868173E-1,-9.349299E-1,6.548532E-1,1.1576966E0,8.441658E-1,1.2922518E0,-1.0034451E0,-8.449342E-1,-7.066697E-1,-1.1727185E0,-4.52162E-1,-5.4763597E-2,-7.195146E-1,-5.359509E-1,-1.102257E0,-9.8158926E-1,-1.1069711E0,-1.7018814E0,-8.126309E-1,1.8672324E0,-8.791217E-1,-1.0652547E0,-7.2846377E-1,-3.2604465E-1,2.3298182E-1,-3.205575E-2,-5.1563334E-1,-8.657426E-1,-3.575524E-1,-8.968283E-1,1.9443394E-1,-1.2052971E-1,-2.9503185E-1,-1.2154489E0,4.128996E-1,-2.8083852E-1,6.362377E-1,-7.678211E-1,1.0510079E0,7.9135394E-1,5.0258577E-1,-3.5521773E-1,1.2823578E0,1.0721442E0,-4.377226E-1,9.803023E-1,1.2316699E0,1.3696746E0,1.0969691E0,1.2247297E0,1.255769E0,1.4682515E0,1.6438442E0,1.3803277E0,6.283735E-1,6.5990696E-3,5.1048875E-1,2.1351105E-1,4.974614E-1,8.6407465E-1,-6.114844E-3,-3.1920392E-2,8.625585E-1,5.49143E-1,7.0970374E-1,1.4013296E0,9.580341E-1,4.5532784E-1,1.3305155E0,5.192363E-1,-1.0952139E0,-9.2006993E-1,1.6373556E0,-8.598686E-1,-7.1992296E-1,-5.88039E-1,-1.216093E0,-1.1445663E-1,-3.9916763E-1,-6.0019E-1,-1.6773033E-1,1.8734327E-1,-7.9516554E-1,-6.640706E-1,-4.9800637E-1,-9.0791756E-1,-1.172236E0,-1.0377878E0,-9.659677E-1,-1.5055547E0,-1.3463042E0,-5.814302E-1,-2.2392364E-2,-5.281041E-2,-4.721441E-2,2.7141428E-2,7.220526E-3,5.7553332E-2,-8.3511084E-1,-9.2584574E-1,-1.1913077E0,-8.8362503E-1,-3.6722308E-1,-9.16547E-1,-2.7800733E-1,-5.5001044E-1,8.542516E-2,3.858391E-1,-7.3337775E-5,-3.4391505E-1,-5.550481E-1,6.936692E-1,-4.6028543E-1,-9.160963E-1,-3.9303687E-1,3.1004807E-1,-1.3704903E0,-6.0031545E-1,6.449071E-1,1.4996508E-1,-1.4455616E-1,1.0267582E0,5.1619303E-1,-3.2707152E-1,-2.620762E-1,-1.359262E0,5.9895265E-1,3.5186103E-1,-1.4677732E-2,-7.134217E-1,-1.9450214E-2,3.4114487E-2,-4.4440606E-1,-1.2154489E0,1.0814539E0,-4.7522396E-1,7.956227E-1,1.0756458E-1,-2.664423E-2,6.4246446E-1,-1.0381707E0,3.5155082E-1,1.169925E0,1.404014E0,9.9999845E-1,1.1878675E0,-1.4863653E0,2.6144978E-1,1.1968263E0,9.3812835E-1,1.2653476E0,1.0391806E0,1.3903146E0,6.592169E-1,9.730818E-1,1.1693214E0,1.2459999E0,9.6419156E-1,1.360389E0,1.0640224E0,1.4830767E0,9.765028E-1,1.5948316E0,1.7353069E0,1.0866138E0,1.576944E0,2.081595E-1,1.3748244E0,7.197001E-1,-2.6805623E-2,3.5637078E-1,7.656477E-1,6.6128343E-1,1.8595167E-1,1.0896517E0,3.6376452E-1,9.9973476E-1,6.4513403E-1,6.7699033E-1,9.7800094E-1,2.6364878E-1,7.6216495E-1,1.1054012E-1,1.0573814E0,1.475689E0,-9.338404E-3,1.2076883E-1,9.801239E-1,-3.7555233E-2,4.7911313E-1,1.347343E0,4.2662615E-1,-6.424749E-1,9.706755E-1,-3.33387E-2,-1.40639655E-2,-2.6290707E-2,-3.8075626E-2,-1.9450214E-2,5.5494446E-2,-2.6929082E-2,-2.2201685E-2,-2.1380488E-2,-2.9023517E-2,-1.4660013E-2,-2.3245305E-2,-3.0709265E-2,-4.0426288E-2,-2.664423E-2,9.378961E-3,-2.9129237E-3,-1.2565151E-2,-1.6855536E-2,-2.688909E-2,-2.4909293E-3,-1.3470103E-2,1.1122628E-2,-4.4636787E-3,-1.9244742E-2,-2.5332687E-2,4.6401188E-2,-2.048281E-2,-1.9333988E-2,-1.2733274E-2,-4.2938624E-2,-2.359402E-2,-3.547114E-2,1.8411782E-2,-3.253079E-2,-2.4173142E-2,-2.9060157E-2,2.4601035E-2,-5.0545894E-2,-9.172967E-3,-4.582984E-2,-6.114844E-3,7.108266E-4,-3.162489E-2,-1.9274246E-2,2.7910767E-2,2.0733818E-2,-2.5106877E-2,-2.8657937E-2,-2.4982203E-2,-3.340607E-2,-4.336069E-2,-8.91749E-3,-2.766205E-2,-1.4018609E-2,1.164115E-2,1.5094519E-2,-2.8418195E-2,1.2035435E-2,-8.693862E-3,-1.8277222E-2,1.9138167E-3,3.0810335E-3,-2.9930752E-2,3.212447E-4,1.2555047E-2,-3.7041733E-3,3.7510938E-3,4.3547945E-3,-1.2621851E-2,-1.8212896E-2,2.1387702E-3,3.8821768E-2,7.108266E-4,-2.0596606E-5,-2.526483E-2,-4.4078585E-2,-2.6206087E-2,-2.0476537E-2,-1.019089E-2,-8.218534E-3,2.0120453E-2,-1.4256719E-2,-5.0587665E-2,2.927385E-3,-2.850206E-2,2.3521626E-2,-1.0265956E-2,-2.351346E-3,7.359087E-3,-3.745501E-3,-4.2154733E-2,4.067076E-2,1.0665262E-2,-7.005753E-3,4.078258E-2,-3.0197535E-2,-8.470862E-3,-1.9450214E-2,7.220526E-3,-4.8228197E-2,-2.7144168E-2,1.3058751E-2,2.0459507E-2,1.0350242E-2,3.246125E-2,-2.7364025E-2,6.1110235E-3,2.0555897E-2,-2.4413327E-2,-5.722334E-3,-3.344077E-2,-4.469594E-2,-1.2224329E-2,3.3150613E-2,-1.31598385E-2,-3.2785583E-2,6.088768E-3,3.2377474E-2,2.352858E-2,-2.2240207E-2,2.4868226E-2,-1.9340236E-2,2.3714056E-2,-9.338404E-3,-3.7376165E-2,-1.4256719E-2,2.9212888E-2,3.7256967E-2,2.0522315E-2,5.36962E-2,3.9250243E-2,1.7994935E-2,3.071966E-2,3.611181E-2,1.592796E-2,-5.0587665E-2,-6.114844E-3,2.3376215E-2,-1.4174113E-2,8.247922E-3,3.6603108E-2,2.4117649E-2,3.144613E-2,4.1556295E-2,3.701084E-2,3.1474676E-2,-1.1272634E-2,3.4276836E-2,4.3144632E-2,-2.3950065E-2,2.5266308E-2,3.0288788E-2,-4.7531895E-2,3.6272876E-2,2.5469605E-2,3.8540114E-2,3.4653164E-2,5.8304705E-3,3.0204395E-2,4.7979772E-2,3.8009766E-2,-1.36913E-2,3.643067E-2,4.4985007E-2,3.5769068E-2,1.0546524E-2,3.2367997E-2,4.8066802E-2,1.763984E-2,5.2289058E-2,6.088768E-3,3.679597E-2,-5.8940677E-3,4.9940992E-2,2.9120265E-2,2.0254731E-2,-5.9205703E-3,4.5203626E-2,5.9707556E-4,-7.862286E-3,2.7982838E-2,-1.5066136E-3,2.5589997E-2,2.0310212E-2,4.9818913E-3,2.3631971E-2,-6.6310037E-3,6.0686134E-3,5.3074498E-2,-1.113132E-3,7.4058743E-3,3.840704E-2,3.0705014E-3,8.725602E-3,2.9556742E-2,7.4637524E-4,3.078829E-2,-2.123885E-3,2.4332166E-2,1.5221379E-2,3.1832177E-2,1.4819574E-2,3.309494E-2,3.3765952E-3,1.7939577E-2,3.1539757E-2,1.438443E-2,1.4999193E-2,-1.7207814E-2,3.56711E-2,1.763984E-2,2.3924379E-2,4.6236552E-2,1.438676E-2,-2.1008847E-2,2.99536E-2,2.0939268E-3,1.5860682E-2,-1.2956437E-2,4.0705446E-2,1.8411782E-2,-1.31598385E-2,3.8821768E-2,-2.3406884E-2,-6.114844E-3,7.4637524E-4,4.4460423E-2],"categories":[],"categories_nodes":[],"categories_segments":[],"categories_sizes":[],"default_left":[0,0,0,0,0,0,0,0,0,0,0,0,0,0,0,0,0,0,0,0,0,0,0,0,0,0,0,0,0,0,0,0,0,0,0,0,0,0,0,0,0,0,0,0,0,0,0,0,0,0,0,0,0,0,0,0,0,0,0,0,0,0,0,0,0,0,0,0,0,0,0,0,0,0,0,0,0,0,0,0,0,0,0,0,0,0,0,0,0,0,0,0,0,0,0,0,0,0,0,0,0,0,0,0,0,0,0,0,0,0,0,0,0,0,0,0,0,0,0,0,0,0,0,0,0,0,0,0,0,0,0,0,0,0,0,0,0,0,0,0,0,0,0,0,0,0,0,0,0,0,0,0,0,0,0,0,0,0,0,0,0,0,0,0,0,0,0,0,0,0,0,0,0,0,0,0,0,0,0,0,0,0,0,0,0,0,0,0,0,0,0,0,0,0,0,0,0,0,0,0,0,0,0,0,0,0,0,0,0,0,0,0,0,0,0,0,0,0,0,0,0,0,0,0,0,0,0,0,0,0,0,0,0,0,0,0,0,0,0,0,0,0,0,0,0,0,0,0,0,0,0,0,0,0,0,0,0,0,0,0,0,0,0,0,0,0,0,0,0,0,0,0,0,0,0,0,0,0,0,0,0,0,0,0,0,0,0,0,0,0,0,0,0,0,0,0,0,0,0,0,0,0,0,0,0,0,0,0,0,0,0,0,0,0,0,0,0,0,0,0,0,0,0,0,0,0,0,0,0,0,0,0,0,0,0,0,0,0,0,0,0,0,0,0,0,0,0,0,0,0,0,0,0,0,0,0,0,0,0,0,0,0,0,0,0,0,0,0,0,0,0,0,0,0,0,0,0,0,0,0,0,0,0,0,0,0,0,0,0,0,0,0,0,0,0,0,0,0,0,0,0,0,0,0,0,0,0,0,0,0,0,0,0,0,0,0,0,0,0,0,0,0,0,0,0,0,0,0,0,0,0,0,0,0,0,0,0,0,0,0,0,0,0,0,0,0,0,0,0,0,0,0,0,0,0,0,0,0,0,0,0,0,0,0,0,0,0,0,0,0,0,0,0,0,0,0,0,0,0],"id":0,"left_children":[1,3,5,7,9,11,13,15,17,19,21,23,25,27,29,31,33,35,37,39,41,43,45,47,49,51,53,55,57,59,61,63,65,67,69,71,73,75,77,79,81,83,85,87,89,91,93,95,97,99,101,103,105,107,109,111,113,115,117,119,121,123,125,127,129,131,133,135,137,139,141,143,145,147,149,151,153,155,157,159,161,163,165,167,169,171,173,175,177,179,181,183,185,187,189,191,193,195,197,199,201,203,205,207,209,211,213,215,217,219,221,223,225,227,229,231,233,-1,-1,235,237,239,241,243,245,247,249,251,253,255,257,259,261,263,265,267,269,271,273,275,277,279,281,283,285,287,289,291,293,-1,-1,-1,295,-1,-1,297,299,301,303,305,307,309,311,313,315,317,319,321,323,325,327,329,331,333,335,337,339,341,343,345,347,349,351,353,355,357,359,-1,-1,361,363,365,367,369,371,-1,373,375,377,379,381,383,385,387,389,391,393,395,397,399,401,403,405,407,409,411,413,415,417,419,421,423,425,427,429,431,433,435,437,439,441,443,445,447,449,451,453,455,457,459,461,463,-1,465,467,-1,469,471,473,475,477,-1,-1,-1,-1,-1,-1,-1,-1,-1,-1,-1,-1,-1,-1,-1,-1,-1,-1,-1,-1,-1,-1,-1,-1,-1,-1,-1,-1,-1,-1,-1,-1,-1,-1,-1,-1,-1,-1,-1,-1,-1,-1,-1,-1,-1,-1,-1,-1,-1,-1,-1,-1,-1,-1,-1,-1,-1,-1,-1,-1,-1,-1,-1,-1,-1,-1,-1,-1,-1,-1,-1,-1,-1,-1,-1,-1,-1,-1,-1,-1,-1,-1,-1,-1,-1,-1,-1,-1,-1,-1,-1,-1,-1,-1,-1,-1,-1,-1,-1,-1,-1,-1,-1,-1,-1,-1,-1,-1,-1,-1,-1,-1,-1,-1,-1,-1,-1,-1,-1,-1,-1,-1,-1,-1,-1,-1,-1,-1,-1,-1,-1,-1,-1,-1,-1,-1,-1,-1,-1,-1,-1,-1,-1,-1,-1,-1,-1,-1,-1,-1,-1,-1,-1,-1,-1,-1,-1,-1,-1,-1,-1,-1,-1,-1,-1,-1,-1,-1,-1,-1,-1,-1,-1,-1,-1,-1,-1,-1,-1,-1,-1,-1,-1,-1,-1,-1,-1,-1,-1,-1,-1,-1,-1,-1,-1,-1,-1,-1,-1,-1,-1,-1,-1,-1,-1,-1,-1,-1,-1,-1,-1,-1,-1,-1,-1,-1,-1,-1,-1,-1,-1,-1,-1,-1,-1,-1,-1,-1],"loss_changes":[3.0353982E4,3.237043E3,1.353416E3,6.8400195E2,3.3894217E2,4.143047E2,2.319685E2,6.94772E2,5.206543E1,1.7320255E2,1.0430855E2,7.359546E1,1.3356836E2,3.779895E1,2.7275879E1,5.970166E1,4.4102283E2,8.430664E0,2.2164062E2,2.2121805E2,2.4842194E1,3.9917515E1,4.663269E1,1.3636475E1,1.3160156E1,1.936621E1,3.0969238E1,2.4264969E1,1.6837708E1,1.8539062E1,3.160315E1,2.2677246E1,3.0756592E1,2.603229E2,2.189685E1,8.647217E0,7.0441437E-1,5.228871E1,1.7765137E1,3.9321045E1,5.1461708E1,1.147345E1,7.4263687E0,1.6441366E1,1.3474796E1,3.1117401E1,9.614048E0,9.803955E0,6.685793E0,9.577515E0,3.867334E1,1.3692383E1,8.942139E0,1.7277344E1,2.7434082E0,1.5952561E1,3.9318787E1,1.2215942E1,4.1999292E-1,1.8985474E1,7.9802704E0,3.4366455E1,5.3341064E0,9.5251465E0,1.0927417E2,5.536499E0,6.732666E0,2.7634521E1,8.417115E1,1.3464966E1,1.1241699E1,4.8428955E0,9.439087E0,8.204975E-1,1.520462E-1,6.113815E0,2.5570526E0,1.0129883E1,1.2600403E1,2.2146484E1,9.83651E0,2.5757362E1,2.034137E1,7.6399384E0,5.211685E0,9.1273E0,3.1087437E0,1.0892847E1,6.700273E0,6.229664E0,2.0082626E0,2.443155E1,7.7015963E0,4.4363184E0,5.610897E0,8.364838E0,5.4851074E0,5.5298815E0,7.2415395E0,2.4357605E0,1.0186523E1,1.5231667E1,5.2402344E0,1.7178223E1,1.5491455E1,1.1416626E1,5.135254E0,1.0776062E1,8.904785E0,1.5561523E0,3.1504974E0,1.4452299E1,8.116185E0,3.4244644E1,1.1131409E1,1.4860241E1,4.8408966E0,0E0,0E0,5.703964E0,3.5686157E1,6.3391895E0,7.1115417E0,1.1109741E1,7.9067574E0,2.3675232E0,6.52213E0,6.0254517E0,9.990845E0,9.816788E0,1.242627E1,5.413452E0,6.7940216E0,2.256134E0,2.5901394E0,1.5524414E1,1.0108215E1,4.994887E1,6.0425163E1,1.0100159E1,8.0851685E1,7.8506317E0,3.6720734E0,1.224408E1,6.774414E0,7.0496826E0,7.3888397E0,1.3457909E0,1.6694617E0,0E0,0E0,0E0,3.9234347E0,0E0,0E0,8.045044E0,6.2233887E0,5.2891235E0,5.3204803E0,8.870012E0,9.939972E0,6.253418E0,5.9632416E0,1.1013174E1,6.8735275E0,2.8587996E1,7.1875477E0,4.8667717E0,2.0806603E0,5.7019634E0,4.471405E0,5.349201E0,4.3421926E0,2.0248947E0,4.729228E0,6.9967823E0,1.09174385E1,5.6296964E0,6.217804E-1,6.1637087E0,6.5495586E0,8.356062E-1,2.097168E-1,6.967819E0,7.81456E0,8.5129385E0,4.1358213E0,0E0,0E0,4.2493773E0,3.2165966E0,6.429886E0,1.8969202E0,5.251465E0,8.573444E0,0E0,5.0328236E0,7.4423695E-1,4.4486284E0,4.778824E0,2.760498E0,7.5028076E0,4.7562866E0,1.7708092E0,5.306803E0,2.0244293E0,7.8413696E0,7.4853516E0,6.468811E0,1.1234131E1,9.6051855E0,5.041992E1,1.017627E1,2.2198486E0,2.7811966E0,6.691162E0,5.0767975E1,4.786377E0,2.4685593E0,3.8256836E0,3.4638062E0,6.881706E0,9.504852E-1,6.0495853E0,2.964138E0,3.4336066E0,6.751611E0,3.3393387E1,7.357605E0,2.6331526E1,1.1700552E1,6.452915E0,6.9046574E0,2.8780518E0,8.786873E0,7.0977554E0,1.0417252E1,1.2747837E1,2.7075928E1,3.6162434E0,5.055847E-1,1.0035477E0,0E0,5.268929E0,9.797241E0,0E0,8.276569E0,4.8831177E-1,4.3197217E0,6.751752E-2,4.07292E0,0E0,0E0,0E0,0E0,0E0,0E0,0E0,0E0,0E0,0E0,0E0,0E0,0E0,0E0,0E0,0E0,0E0,0E0,0E0,0E0,0E0,0E0,0E0,0E0,0E0,0E0,0E0,0E0,0E0,0E0,0E0,0E0,0E0,0E0,0E0,0E0,0E0,0E0,0E0,0E0,0E0,0E0,0E0,0E0,0E0,0E0,0E0,0E0,0E0,0E0,0E0,0E0,0E0,0E0,0E0,0E0,0E0,0E0,0E0,0E0,0E0,0E0,0E0,0E0,0E0,0E0,0E0,0E0,0E0,0E0,0E0,0E0,0E0,0E0,0E0,0E0,0E0,0E0,0E0,0E0,0E0,0E0,0E0,0E0,0E0,0E0,0E0,0E0,0E0,0E0,0E0,0E0,0E0,0E0,0E0,0E0,0E0,0E0,0E0,0E0,0E0,0E0,0E0,0E0,0E0,0E0,0E0,0E0,0E0,0E0,0E0,0E0,0E0,0E0,0E0,0E0,0E0,0E0,0E0,0E0,0E0,0E0,0E0,0E0,0E0,0E0,0E0,0E0,0E0,0E0,0E0,0E0,0E0,0E0,0E0,0E0,0E0,0E0,0E0,0E0,0E0,0E0,0E0,0E0,0E0,0E0,0E0,0E0,0E0,0E0,0E0,0E0,0E0,0E0,0E0,0E0,0E0,0E0,0E0,0E0,0E0,0E0,0E0,0E0,0E0,0E0,0E0,0E0,0E0,0E0,0E0,0E0,0E0,0E0,0E0,0E0,0E0,0E0,0E0,0E0,0E0,0E0,0E0,0E0,0E0,0E0,0E0,0E0,0E0,0E0,0E0,0E0,0E0,0E0,0E0,0E0,0E0,0E0,0E0,0E0,0E0,0E0,0E0,0E0,0E0,0E0,0E0,0E0,0E0,0E0,0E0,0E0,0E0,0E0,0E0,0E0,0E0,0E0,0E0,0E0,0E0,0E0,0E0,0E0,0E0,0E0,0E0,0E0],"parents":[2147483647,0,0,1,1,2,2,3,3,4,4,5,5,6,6,7,7,8,8,9,9,10,10,11,11,12,12,13,13,14,14,15,15,16,16,17,17,18,18,19,19,20,20,21,21,22,22,23,23,24,24,25,25,26,26,27,27,28,28,29,29,30,30,31,31,32,32,33,33,34,34,35,35,36,36,37,37,38,38,39,39,40,40,41,41,42,42,43,43,44,44,45,45,46,46,47,47,48,48,49,49,50,50,51,51,52,52,53,53,54,54,55,55,56,56,57,57,58,58,59,59,60,60,61,61,62,62,63,63,64,64,65,65,66,66,67,67,68,68,69,69,70,70,71,71,72,72,73,73,74,74,75,75,76,76,77,77,78,78,79,79,80,80,81,81,82,82,83,83,84,84,85,85,86,86,87,87,88,88,89,89,90,90,91,91,92,92,93,93,94,94,95,95,96,96,97,97,98,98,99,99,100,100,101,101,102,102,103,103,104,104,105,105,106,106,107,107,108,108,109,109,110,110,111,111,112,112,113,113,114,114,115,115,116,116,119,119,120,120,121,121,122,122,123,123,124,124,125,125,126,126,127,127,128,128,129,129,130,130,131,131,132,132,133,133,134,134,135,135,136,136,137,137,138,138,139,139,140,140,141,141,142,142,143,143,144,144,145,145,146,146,147,147,148,148,152,152,155,155,156,156,157,157,158,158,159,159,160,160,161,161,162,162,163,163,164,164,165,165,166,166,167,167,168,168,169,169,170,170,171,171,172,172,173,173,174,174,175,175,176,176,177,177,178,178,179,179,180,180,181,181,182,182,183,183,184,184,185,185,186,186,189,189,190,190,191,191,192,192,193,193,194,194,196,196,197,197,198,198,199,199,200,200,201,201,202,202,203,203,204,204,205,205,206,206,207,207,208,208,209,209,210,210,211,211,212,212,213,213,214,214,215,215,216,216,217,217,218,218,219,219,220,220,221,221,222,222,223,223,224,224,225,225,226,226,227,227,228,228,229,229,230,230,231,231,232,232,233,233,234,234,235,235,236,236,237,237,238,238,239,239,240,240,241,241,243,243,244,244,246,246,247,247,248,248,249,249,250,250],"right_children":[2,4,6,8,10,12,14,16,18,20,22,24,26,28,30,32,34,36,38,40,42,44,46,48,50,52,54,56,58,60,62,64,66,68,70,72,74,76,78,80,82,84,86,88,90,92,94,96,98,100,102,104,106,108,110,112,114,116,118,120,122,124,126,128,130,132,134,136,138,140,142,144,146,148,150,152,154,156,158,160,162,164,166,168,170,172,174,176,178,180,182,184,186,188,190,192,194,196,198,200,202,204,206,208,210,212,214,216,218,220,222,224,226,228,230,232,234,-1,-1,236,238,240,242,244,246,248,250,252,254,256,258,260,262,264,266,268,270,272,274,276,278,280,282,284,286,288,290,292,294,-1,-1,-1,296,-1,-1,298,300,302,304,306,308,310,312,314,316,318,320,322,324,326,328,330,332,334,336,338,340,342,344,346,348,350,352,354,356,358,360,-1,-1,362,364,366,368,370,372,-1,374,376,378,380,382,384,386,388,390,392,394,396,398,400,402,404,406,408,410,412,414,416,418,420,422,424,426,428,430,432,434,436,438,440,442,444,446,448,450,452,454,456,458,460,462,464,-1,466,468,-1,470,472,474,476,478,-1,-1,-1,-1,-1,-1,-1,-1,-1,-1,-1,-1,-1,-1,-1,-1,-1,-1,-1,-1,-1,-1,-1,-1,-1,-1,-1,-1,-1,-1,-1,-1,-1,-1,-1,-1,-1,-1,-1,-1,-1,-1,-1,-1,-1,-1,-1,-1,-1,-1,-1,-1,-1,-1,-1,-1,-1,-1,-1,-1,-1,-1,-1,-1,-1,-1,-1,-1,-1,-1,-1,-1,-1,-1,-1,-1,-1,-1,-1,-1,-1,-1,-1,-1,-1,-1,-1,-1,-1,-1,-1,-1,-1,-1,-1,-1,-1,-1,-1,-1,-1,-1,-1,-1,-1,-1,-1,-1,-1,-1,-1,-1,-1,-1,-1,-1,-1,-1,-1,-1,-1,-1,-1,-1,-1,-1,-1,-1,-1,-1,-1,-1,-1,-1,-1,-1,-1,-1,-1,-1,-1,-1,-1,-1,-1,-1,-1,-1,-1,-1,-1,-1,-1,-1,-1,-1,-1,-1,-1,-1,-1,-1,-1,-1,-1,-1,-1,-1,-1,-1,-1,-1,-1,-1,-1,-1,-1,-1,-1,-1,-1,-1,-1,-1,-1,-1,-1,-1,-1,-1,-1,-1,-1,-1,-1,-1,-1,-1,-1,-1,-1,-1,-1,-1,-1,-1,-1,-1,-1,-1,-1,-1,-1,-1,-1,-1,-1,-1,-1,-1,-1,-1,-1,-1,-1,-1,-1,-1],"split_conditions":[1E0,2.6750444E1,9E0,1.1E1,3.0012846E1,7E0,1.6367789E2,3E0,1.9E1,6E0,5E0,3.4178173E1,1.8292519E2,2.919884E1,2.6195606E1,2E0,6E0,7.6543474E-1,1.2192865E1,4E0,3.2294758E1,1.3851056E1,6E0,7.671689E-1,5.808123E-1,8E0,2.3301929E2,1.06689156E2,7.761335E-1,3.259112E2,2.3305609E2,1.9E1,2.5369768E1,4E0,4.3819252E1,4.4853038E-1,2.6544222E1,1.8E1,3.7E1,3E0,7.719509E0,9.808391E0,7.7628976E-1,3E1,8.180227E-1,7.09228E-1,4.982571E-1,3.2352822E0,8.086341E-1,1.7E1,5.1875114E-1,1.44375E2,2.9621662E1,2.7085361E1,4.6E1,1.4E1,1.2421852E2,5.38984E-1,8.237372E-1,1.6568239E2,7.3703647E-1,1.7981055E2,5.3E1,4.4082746E-1,1.0563185E1,2.5103945E1,4.6E1,1.3320964E1,5E0,2.2E1,7.247254E-1,1.7912968E1,2.3E1,1.8E1,7.588445E-1,4.570647E-1,3.967381E-1,1.2E1,2.244818E1,1.0325384E1,3.5E1,5E0,3.9E1,2.9550144E1,9.022341E0,6.923272E-1,7.3699474E-1,3.044916E-1,1.5479017E1,4.2716572E-1,1.8825527E1,6.10515E0,7.7618146E-1,1.7169706E1,3.4E1,8.1456436E1,1.5868626E2,7.2471964E-1,8.238029E-1,4.4724983E-1,3.260764E1,2.8392971E1,5.7548875E-1,3.4E1,8.0211514E-1,1.4095338E2,3.8E1,6.239573E-1,8.237372E-1,2.812823E2,3.0518377E1,4.674876E-1,7.689299E1,1.290805E2,1.9127628E1,3.8799074E-1,1.2581809E2,-6.114844E-3,-3.1920392E-2,1.7979675E2,2.075364E2,2.244818E1,4.3E1,4.5211536E-1,1.791598E2,8.7421393E-1,6.4427567E-1,1.4958297E1,2.2649744E1,1.8E1,2.2862173E1,7.140245E-1,2.6022282E1,2.7674593E1,2.333281E1,1.7912968E1,2.7674593E1,1.5128518E1,5.4224277E-1,4.9208574E0,1.6E1,2E1,2E1,5.116872E-1,9.0134945E0,7.859556E-1,2.1581448E1,3.0335072E1,1.6723228E1,-2.2392364E-2,-5.281041E-2,-4.721441E-2,1.0563185E1,7.220526E-3,5.7553332E-2,1.362701E1,2.2510635E1,6.6351366E-1,4.582119E-1,9.613875E0,4.315557E-1,6.8129575E-1,7.50989E-1,3.8E1,2.5440803E-1,5E0,2.7085361E1,1.3451021E1,4.9208574E0,5.4890865E-1,4.5085204E-1,4.511247E-1,4.6583385E1,3.6E1,7.7618146E-1,3.190272E-1,5.976668E0,4.3E1,3.1484932E1,3.1219917E1,4.5695925E-1,8.4507054E-1,2.1376932E1,3.1747696E1,7.000852E-1,9.412068E0,1.3980627E1,-1.9450214E-2,3.4114487E-2,3.1130384E1,3.0688349E1,5.73966E-1,3.8019496E-1,1.3E1,6.5458024E-1,-2.664423E-2,2.1643124E1,2.7664452E1,1.13930855E2,4.731505E-1,2.5055141E1,1.7E1,4.1E1,8.230084E1,5.055365E-1,5.822723E-1,8.795668E1,1.7E1,5.1E1,2E1,1.5729971E2,1.6188336E2,1.7365927E2,5.822546E-1,4.7430807E-1,2.418668E1,1.8E1,4.4E1,1.5868626E2,2.812823E2,3.314784E1,2.9474741E1,5.9E1,1.3E1,1.06689156E2,7.246552E1,6.635073E-1,1.06689156E2,2.9063898E1,2.2E1,2.3447094E1,1.1942795E2,3.7E1,4.9084437E-1,1.3315445E2,5.822546E-1,1.7E1,2.4884703E1,2.0347255E2,3.259112E2,2.3675465E1,1.8769497E1,-9.338404E-3,1.5868626E2,8.4507054E-1,-3.7555233E-2,2.271908E2,3.2309044E1,2.682355E2,6.46812E-1,5.7E1,-3.33387E-2,-1.40639655E-2,-2.6290707E-2,-3.8075626E-2,-1.9450214E-2,5.5494446E-2,-2.6929082E-2,-2.2201685E-2,-2.1380488E-2,-2.9023517E-2,-1.4660013E-2,-2.3245305E-2,-3.0709265E-2,-4.0426288E-2,-2.664423E-2,9.378961E-3,-2.9129237E-3,-1.2565151E-2,-1.6855536E-2,-2.688909E-2,-2.4909293E-3,-1.3470103E-2,1.1122628E-2,-4.4636787E-3,-1.9244742E-2,-2.5332687E-2,4.6401188E-2,-2.048281E-2,-1.9333988E-2,-1.2733274E-2,-4.2938624E-2,-2.359402E-2,-3.547114E-2,1.8411782E-2,-3.253079E-2,-2.4173142E-2,-2.9060157E-2,2.4601035E-2,-5.0545894E-2,-9.172967E-3,-4.582984E-2,-6.114844E-3,7.108266E-4,-3.162489E-2,-1.9274246E-2,2.7910767E-2,2.0733818E-2,-2.5106877E-2,-2.8657937E-2,-2.4982203E-2,-3.340607E-2,-4.336069E-2,-8.91749E-3,-2.766205E-2,-1.4018609E-2,1.164115E-2,1.5094519E-2,-2.8418195E-2,1.2035435E-2,-8.693862E-3,-1.8277222E-2,1.9138167E-3,3.0810335E-3,-2.9930752E-2,3.212447E-4,1.2555047E-2,-3.7041733E-3,3.7510938E-3,4.3547945E-3,-1.2621851E-2,-1.8212896E-2,2.1387702E-3,3.8821768E-2,7.108266E-4,-2.0596606E-5,-2.526483E-2,-4.4078585E-2,-2.6206087E-2,-2.0476537E-2,-1.019089E-2,-8.218534E-3,2.0120453E-2,-1.4256719E-2,-5.0587665E-2,2.927385E-3,-2.850206E-2,2.3521626E-2,-1.0265956E-2,-2.351346E-3,7.359087E-3,-3.745501E-3,-4.2154733E-2,4.067076E-2,1.0665262E-2,-7.005753E-3,4.078258E-2,-3.0197535E-2,-8.470862E-3,-1.9450214E-2,7.220526E-3,-4.8228197E-2,-2.7144168E-2,1.3058751E-2,2.0459507E-2,1.0350242E-2,3.246125E-2,-2.7364025E-2,6.1110235E-3,2.0555897E-2,-2.4413327E-2,-5.722334E-3,-3.344077E-2,-4.469594E-2,-1.2224329E-2,3.3150613E-2,-1.31598385E-2,-3.2785583E-2,6.088768E-3,3.2377474E-2,2.352858E-2,-2.2240207E-2,2.4868226E-2,-1.9340236E-2,2.3714056E-2,-9.338404E-3,-3.7376165E-2,-1.4256719E-2,2.9212888E-2,3.7256967E-2,2.0522315E-2,5.36962E-2,3.9250243E-2,1.7994935E-2,3.071966E-2,3.611181E-2,1.592796E-2,-5.0587665E-2,-6.114844E-3,2.3376215E-2,-1.4174113E-2,8.247922E-3,3.6603108E-2,2.4117649E-2,3.144613E-2,4.1556295E-2,3.701084E-2,3.1474676E-2,-1.1272634E-2,3.4276836E-2,4.3144632E-2,-2.3950065E-2,2.5266308E-2,3.0288788E-2,-4.7531895E-2,3.6272876E-2,2.5469605E-2,3.8540114E-2,3.4653164E-2,5.8304705E-3,3.0204395E-2,4.7979772E-2,3.8009766E-2,-1.36913E-2,3.643067E-2,4.4985007E-2,3.5769068E-2,1.0546524E-2,3.2367997E-2,4.8066802E-2,1.763984E-2,5.2289058E-2,6.088768E-3,3.679597E-2,-5.8940677E-3,4.9940992E-2,2.9120265E-2,2.0254731E-2,-5.9205703E-3,4.5203626E-2,5.9707556E-4,-7.862286E-3,2.7982838E-2,-1.5066136E-3,2.5589997E-2,2.0310212E-2,4.9818913E-3,2.3631971E-2,-6.6310037E-3,6.0686134E-3,5.3074498E-2,-1.113132E-3,7.4058743E-3,3.840704E-2,3.0705014E-3,8.725602E-3,2.9556742E-2,7.4637524E-4,3.078829E-2,-2.123885E-3,2.4332166E-2,1.5221379E-2,3.1832177E-2,1.4819574E-2,3.309494E-2,3.3765952E-3,1.7939577E-2,3.1539757E-2,1.438443E-2,1.4999193E-2,-1.7207814E-2,3.56711E-2,1.763984E-2,2.3924379E-2,4.6236552E-2,1.438676E-2,-2.1008847E-2,2.99536E-2,2.0939268E-3,1.5860682E-2,-1.2956437E-2,4.0705446E-2,1.8411782E-2,-1.31598385E-2,3.8821768E-2,-2.3406884E-2,-6.114844E-3,7.4637524E-4,4.4460423E-2],"split_indices":[1,3,0,0,3,0,9,0,14,0,0,9,2,3,3,0,0,16,3,0,15,9,0,10,10,0,2,9,10,9,9,8,6,0,6,4,2,8,11,0,15,2,13,8,16,10,13,9,13,11,7,6,3,3,8,8,2,4,4,2,7,2,8,13,3,3,14,9,0,14,10,3,11,8,4,16,13,0,3,15,11,0,14,3,6,16,4,16,15,4,2,15,7,9,8,6,2,7,10,13,3,3,4,11,16,2,8,10,7,2,3,13,2,9,3,4,2,0,0,9,9,3,14,13,15,4,7,6,15,14,3,7,3,2,3,3,2,2,4,6,11,8,14,13,15,13,3,6,3,0,0,0,3,0,0,3,3,13,10,15,10,9,10,8,7,0,3,6,9,13,10,16,15,14,7,13,2,14,3,3,7,13,15,3,13,9,2,0,0,3,3,16,10,11,13,0,3,6,2,7,3,8,11,15,7,10,6,11,11,8,6,6,15,4,4,3,14,14,9,9,3,3,14,11,2,9,10,2,3,14,3,2,11,7,15,4,8,3,2,2,3,3,0,2,7,0,15,3,9,4,8,0,0,0,0,0,0,0,0,0,0,0,0,0,0,0,0,0,0,0,0,0,0,0,0,0,0,0,0,0,0,0,0,0,0,0,0,0,0,0,0,0,0,0,0,0,0,0,0,0,0,0,0,0,0,0,0,0,0,0,0,0,0,0,0,0,0,0,0,0,0,0,0,0,0,0,0,0,0,0,0,0,0,0,0,0,0,0,0,0,0,0,0,0,0,0,0,0,0,0,0,0,0,0,0,0,0,0,0,0,0,0,0,0,0,0,0,0,0,0,0,0,0,0,0,0,0,0,0,0,0,0,0,0,0,0,0,0,0,0,0,0,0,0,0,0,0,0,0,0,0,0,0,0,0,0,0,0,0,0,0,0,0,0,0,0,0,0,0,0,0,0,0,0,0,0,0,0,0,0,0,0,0,0,0,0,0,0,0,0,0,0,0,0,0,0,0,0,0,0,0,0,0,0,0,0,0,0,0,0,0,0,0,0,0,0,0,0,0,0,0,0,0,0,0,0,0,0,0],"split_type":[0,0,0,0,0,0,0,0,0,0,0,0,0,0,0,0,0,0,0,0,0,0,0,0,0,0,0,0,0,0,0,0,0,0,0,0,0,0,0,0,0,0,0,0,0,0,0,0,0,0,0,0,0,0,0,0,0,0,0,0,0,0,0,0,0,0,0,0,0,0,0,0,0,0,0,0,0,0,0,0,0,0,0,0,0,0,0,0,0,0,0,0,0,0,0,0,0,0,0,0,0,0,0,0,0,0,0,0,0,0,0,0,0,0,0,0,0,0,0,0,0,0,0,0,0,0,0,0,0,0,0,0,0,0,0,0,0,0,0,0,0,0,0,0,0,0,0,0,0,0,0,0,0,0,0,0,0,0,0,0,0,0,0,0,0,0,0,0,0,0,0,0,0,0,0,0,0,0,0,0,0,0,0,0,0,0,0,0,0,0,0,0,0,0,0,0,0,0,0,0,0,0,0,0,0,0,0,0,0,0,0,0,0,0,0,0,0,0,0,0,0,0,0,0,0,0,0,0,0,0,0,0,0,0,0,0,0,0,0,0,0,0,0,0,0,0,0,0,0,0,0,0,0,0,0,0,0,0,0,0,0,0,0,0,0,0,0,0,0,0,0,0,0,0,0,0,0,0,0,0,0,0,0,0,0,0,0,0,0,0,0,0,0,0,0,0,0,0,0,0,0,0,0,0,0,0,0,0,0,0,0,0,0,0,0,0,0,0,0,0,0,0,0,0,0,0,0,0,0,0,0,0,0,0,0,0,0,0,0,0,0,0,0,0,0,0,0,0,0,0,0,0,0,0,0,0,0,0,0,0,0,0,0,0,0,0,0,0,0,0,0,0,0,0,0,0,0,0,0,0,0,0,0,0,0,0,0,0,0,0,0,0,0,0,0,0,0,0,0,0,0,0,0,0,0,0,0,0,0,0,0,0,0,0,0,0,0,0,0,0,0,0,0,0,0,0,0,0,0,0,0,0,0,0,0,0,0,0,0,0,0,0,0,0,0,0,0,0,0,0,0,0,0,0,0,0,0,0,0,0,0,0,0,0,0,0,0,0,0,0,0,0,0,0,0,0,0,0,0],"sum_hessian":[5.4827176E4,3.6246535E4,1.858064E4,2.7662145E4,8.58439E3,1.4072631E4,4.5080103E3,1.9013021E4,8.649122E3,5.270551E3,3.3138389E3,4.486766E3,9.585864E3,2.5537979E3,1.9542126E3,8.222739E3,1.0790283E4,2.7090051E3,5.9401167E3,4.43828E3,8.322711E2,1.0327161E3,2.2811228E3,2.113169E3,2.3735974E3,6.5117095E3,3.0741548E3,2.1726526E3,3.811452E2,9.6648425E2,9.877284E2,4.284322E3,3.938417E3,6.6276777E3,4.1626055E3,2.6720154E3,3.698983E1,4.3737972E1,5.8963784E3,1.2574043E3,3.1808752E3,4.261328E2,4.0613834E2,7.8428436E2,2.4843169E2,2.2348855E3,4.6237286E1,2.0754292E3,3.7739624E1,1.658544E3,7.150534E2,3.9696584E3,2.542051E3,2.0274425E3,1.0467122E3,3.8489417E2,1.7877584E3,3.753968E2,5.7484193E0,8.852566E2,8.122766E1,7.850341E2,2.0269426E2,1.3756217E3,2.9087002E3,3.789708E3,1.487091E2,3.5522732E3,3.0754043E3,3.335083E3,8.2752246E2,1.342131E3,1.3298843E3,1.174677E1,2.524306E1,8.4976635E0,3.524031E1,5.3010425E3,5.953363E2,3.2990927E2,9.27495E2,1.1424359E3,2.0384395E3,1.5120842E2,2.749244E2,3.7914575E2,2.6992579E1,5.475994E2,2.3668492E2,2.3218616E2,1.6245533E1,2.1689036E3,6.598186E1,4.7486944E0,4.148859E1,1.6795381E2,1.9074755E3,2.4493265E1,1.3246358E1,2.9716827E2,1.3613756E3,1.9244709E1,6.9580865E2,2.8517158E3,1.1179426E3,1.3996151E3,1.1424359E3,6.083327E2,1.4191097E3,9.6348505E2,8.322711E1,4.5987354E1,3.389068E2,8.767589E2,9.109995E2,1.916973E2,1.836995E2,1.2496564E0,4.498763E0,2.9616855E2,5.89088E2,2.9991753E1,5.1235912E1,6.060834E2,1.7895079E2,1.9244708E2,1.0247182E1,6.4907153E2,7.2655023E2,1.6745396E1,2.8919548E3,3.404314E3,3.85394E2,1.4271075E2,5.9983506E0,2.61853E3,9.337432E2,2.0971733E3,9.78231E2,1.4048636E3,1.9302192E3,7.530429E2,7.447952E1,6.353253E2,7.0680566E2,1.2941442E3,3.5740173E1,6.9980755E0,4.7486944E0,2.2493815E0,2.2993677E1,3.9989004E0,4.498763E0,1.2496564E0,3.3990654E1,2.7394968E3,2.5615457E3,3.4815427E2,2.4718204E2,1.1396866E2,2.1594063E2,7.655395E2,1.6195546E2,5.8208997E2,5.6034595E2,1.8497413E3,1.8869812E2,1.469596E2,4.2488317E0,3.149134E1,2.4343306E2,3.604009E2,1.8744846E1,8.997526E0,1.7995052E1,4.7986805E1,4.996126E2,2.3268602E2,3.9989004E0,8.247732E0,2.2393842E2,2.4993129E0,1.3746221E1,5.336033E2,1.6353003E3,4.148859E1,2.4493265E1,1.2496564E0,3.4990377E0,2.524306E1,1.6245533E1,1.6495464E2,2.9991753E0,1.8954788E3,1.1996701E1,1.7495189E0,2.2743746E1,6.4982133E0,6.7481446E0,1.5995602E2,1.3721227E2,8.4451776E2,5.1685785E2,7.248007E0,1.1996701E1,1.0897004E2,5.868386E2,2.422334E3,4.2938193E2,1.0854515E3,3.2491066E1,5.213566E2,8.782585E2,1.0527106E3,8.972533E1,3.8964285E2,2.1868987E2,1.3756217E3,4.348804E1,6.393242E2,3.2416086E2,3.5990105E1,4.723701E1,3.0241684E1,1.574567E1,1.4246082E1,3.2466074E2,5.480993E2,3.2865964E2,5.1485844E1,8.595137E2,3.3990654E1,1.5770663E2,1.1121942E2,7.248007E1,1.1621804E2,1.7995052E2,2.5268053E2,3.364075E2,1.1496839E1,1.8494915E1,4.923646E1,1.9994502E0,1.574567E1,5.9033765E2,1.7495189E0,1.7720128E2,1.8844818E2,3.9989004E0,2.749244E0,7.497938E0,6.320762E2,1.6995327E1,6.488216E2,7.772863E1,1.2496564E0,1.5495739E1,2.1938967E3,6.9805804E2,3.3113394E3,9.2974434E1,2.5393018E2,1.3146385E2,6.1483093E1,8.122766E1,1.7495189E0,4.2488317E0,1.6045587E2,2.4580742E3,8.29272E2,1.04471275E2,1.6128065E3,4.8436682E2,6.32826E2,3.4540503E2,3.444053E2,1.0604584E3,1.5495739E1,1.9147235E3,2.4918149E2,5.0386145E2,1.1996701E1,6.248282E1,6.320762E2,3.2491066E0,5.85589E2,1.2121667E2,1.2926445E3,1.4995877E0,3.0741547E1,4.9986258E0,5.7484193E0,1.2496564E0,2.4993129E0,2.2493815E0,2.749244E0,1.7495189E0,2.749244E0,2.7367476E3,1.9394667E3,6.220789E2,2.7067557E2,7.74787E1,1.574567E1,2.3143636E2,1.0097224E2,1.2996427E1,4.2488317E0,2.1169179E2,1.2496564E1,7.530429E2,1.4770938E2,1.4246082E1,5.738422E2,8.247732E0,4.498763E1,5.153583E2,9.3124396E2,9.1849744E2,2.549299E1,1.6320512E2,1.3571268E2,1.1246907E1,1.7495189E0,2.4993129E0,1.4745945E1,1.6745396E1,1.4995876E1,2.2843718E2,5.423509E1,3.061658E2,7.248007E0,1.1496839E1,2.9991753E0,5.9983506E0,6.248282E0,1.174677E1,4.2238384E1,5.7484193E0,1.4720952E2,3.524031E2,2.301867E2,2.4993129E0,1.9994502E0,1.9994502E0,4.7486944E0,3.4990377E0,1.2496564E1,2.1144186E2,1.2496564E0,1.2496564E0,7.248007E0,6.4982133E0,1.8170004E2,3.5190323E2,1.6215541E3,1.3746221E1,7.497938E0,3.3990654E1,1.2496564E0,2.3243608E1,1.9244709E1,5.9983506E0,1.1496839E1,4.7486944E0,1.6270526E2,2.2493815E0,1.2496564E0,1.7495189E0,6.9230965E1,1.8262478E3,5.498488E0,6.4982133E0,1.9994502E0,2.0744295E1,1.9994502E0,4.498763E0,2.9991753E0,3.748969E0,1.3796207E2,2.1993952E1,2.3743471E1,1.13468796E2,4.923646E1,7.952813E2,5.0386145E2,1.2996427E1,5.9983506E0,1.2496564E0,6.9980755E0,4.9986258E0,2.9991753E0,1.0597086E2,2.6817627E2,3.1866238E2,4.971133E2,1.9252206E3,4.266327E2,2.749244E0,1.7970059E2,9.057509E2,3.2491066E0,2.9241959E1,5.146085E2,6.7481446E0,7.787858E2,9.947265E1,7.2929944E2,3.2341107E2,4.9986258E0,8.47267E1,1.0497114E2,2.8467172E2,1.949464E1,1.9919522E2,1.2981431E3,7.74787E1,6.7481446E0,3.67399E1,6.340756E2,5.2485566E0,3.2241135E2,1.7495189E0,3.2491066E1,3.4990377E0,3.9739075E1,7.497938E0,1.3746221E1,1.6495464E1,1.4246082E1,1.4995877E0,2.4993129E0,1.174677E1,3.1716278E2,7.497938E0,2.0319412E2,3.4490515E2,3.2166156E2,6.9980755E0,3.723976E1,1.4246082E1,1.8444928E2,6.750644E2,2.8242233E1,5.7484193E0,1.4246083E2,1.5245808E1,2.9991753E0,1.08220245E2,1.3746221E1,5.873385E1,8.222739E1,3.3990654E1,3.7989555E1,1.4196097E2,1.7495189E2,7.772863E1,1.6495464E2,1.7145285E2,7.497938E0,3.9989004E0,1.3246358E1,5.2485566E0,5.498488E0,4.3737972E1,1.1246907E1,4.498763E0,5.785909E2,1.174677E1,1.6845367E2,8.747595E0,1.8519908E2,3.2491066E0,2.2493815E0,1.7495189E0,1.4995877E0,1.2496564E0,2.9991753E0,4.498763E0],"tree_param":{"num_deleted":"0","num_feature":"17","num_nodes":"479","size_leaf_vector":"1"}},{"base_weights":[2.9688174E-4,-5.174203E-1,1.0086946E0,-7.1773213E-1,-9.326154E-2,1.1559923E0,5.4616916E-1,-6.1942834E-1,-9.086237E-1,-3.8088742E-3,-6.2258315E-1,7.9417795E-1,1.2613475E0,3.0612072E-1,8.3311176E-1,-8.00216E-1,-4.5065996E-1,-1.0215701E0,-8.543864E-1,-4.4594285E-1,1.3552189E-1,-7.382711E-1,-4.5171875E-1,8.4697115E-1,6.3274324E-1,1.1897746E0,1.442156E0,4.1165406E-1,-2.2471781E-1,6.6319823E-1,9.3657774E-1,-8.7995464E-1,-7.0899016E-1,-2.8960246E-1,-6.6358167E-1,-1.0070045E0,-1.4674482E0,1.3587568E0,-8.710961E-1,-6.5155655E-1,-3.571757E-1,-4.617929E-2,2.720295E-1,-6.6186553E-1,-8.736459E-1,-4.1569003E-1,-9.932504E-1,8.086687E-1,9.1939527E-1,6.7186975E-1,1.3329265E-1,1.2248935E0,1.1162064E0,1.3657933E0,1.5883226E0,2.0729147E-1,7.0748264E-1,-2.0313385E-1,-1.2422563E0,8.5548043E-1,-2.3019198E-1,1.0419958E0,7.9613584E-1,-9.9553835E-1,-8.3435476E-1,-6.8930954E-1,-1.0314254E0,-3.5545477E-1,2.753305E-1,-7.742604E-1,-5.9500694E-1,-9.982246E-1,-5.183262E-2,-1.5259421E0,1.8340315E-1,-9.2029035E-1,1.8112878E0,-8.605861E-1,-1.1850091E0,-5.001703E-1,-8.384862E-1,-2.6608634E-1,-4.3941775E-1,9.974166E-3,-2.997796E-1,3.2152402E-1,-4.2421754E-2,-9.355851E-1,-6.0629535E-1,1.15936674E-1,-8.9014345E-1,-5.040361E-1,-1.6039938E-1,-3.9970508E-1,-1.1220984E0,1.0180048E0,7.911657E-1,1.0630918E0,8.3965087E-1,5.577521E-1,8.287972E-1,-9.79119E-1,2.7905875E-1,1.1712663E0,1.2966205E0,1.1447785E0,8.513922E-1,1.2065696E0,1.4321698E0,1.593745E0,7.813791E-1,3.5884422E-1,-2.0130798E-1,7.7396506E-1,5.6127053E-1,-2.8038767E-1,9.234823E-2,-1.155095E-2,-4.1272156E-2,4.282768E-1,9.1057545E-1,-4.9497733E-1,3.7864864E-2,1.0581336E0,1.3422234E-1,-7.347811E-2,9.8204994E-1,-1.0554788E0,-8.358672E-1,1.2842627E0,-8.518559E-1,-5.4795736E-1,-7.03712E-1,-1.0469908E0,2.6521621E-2,-4.4136474E-1,-1.724885E-1,5.6256825E-1,-2.0029124E-2,-7.522504E-1,-1.1384772E0,-5.766318E-1,-9.3556607E-1,-1.0694488E0,-9.492649E-1,1.3031173E-3,-1.5663557E0,-1.0759434E-2,2.112152E-2,-4.5202315E-2,-8.276573E-2,7.282761E-1,5.7438977E-2,-8.445617E-1,-1.0231973E0,-1.7831802E-1,-1.2418699E0,5.8438206E-1,-5.353351E-1,-7.3699045E-1,-1.098159E0,-3.7463516E-1,-1.6569096E-1,-4.5821717E-1,1.3360418E-3,2.3394553E-1,-3.1964373E-2,-5.4172367E-1,-2.090469E-1,5.125363E-1,2.5952572E-1,-2.8882354E-1,1.8039718E-1,-3.073165E-1,-1.0194237E0,-5.0404996E-1,-7.878004E-1,-6.26814E-1,3.3256534E-2,-1.3262234E0,-8.483606E-1,-6.1380416E-1,-3.21952E-1,7.4515146E-1,-2.0795374E-1,5.3855705E-1,-9.5858496E-1,-9.2509496E-1,-1.4702693E0,1.0461053E0,-1.6202217E-2,7.8095E-1,1.1648567E0,1.078741E0,-1.0131596E-1,7.569062E-1,1.0501367E0,2.710154E-1,6.533809E-1,1.2068285E0,7.809331E-1,-1.253502E0,4.86302E-4,8.081445E-1,5.0935064E-2,1.1785835E0,4.5335636E-1,1.3025435E0,3.872567E-1,1.0577931E0,1.2127364E0,-5.4125404E-1,9.296013E-1,1.3215193E0,1.0000978E0,1.444012E0,9.6896815E-1,1.3537247E-2,1.5957747E0,-6.5992097E-3,9.7127134E-1,-5.4182388E-2,5.466983E-1,8.803946E-1,-2.1824063E-1,-1.9585181E-2,7.801329E-1,-1.9592799E-1,6.796306E-1,-1.636238E-1,-5.2110577E-1,4.32798E-2,-2.8358304E-3,7.310149E-1,1.6966704E-1,9.938251E-1,6.538025E-1,-2.8564927E-1,-1.0104529E0,1.1728712E0,-6.790334E-2,6.739755E-2,1.0704209E0,5.60495E-1,-3.2520607E-1,4.898927E-2,-6.2652934E-1,7.691291E-1,1.2311927E0,-2.608776E-2,-3.434961E-2,-2.1792382E-2,-3.602587E-2,-1.0434608E-2,5.2061625E-2,-2.6522469E-2,-2.174039E-2,3.4256406E-2,-1.6741278E-2,-2.4695596E-2,-2.033492E-2,-3.228211E-2,-1.1623859E-2,-1.9368246E-2,1.7003454E-2,-1.155904E-2,-1.7276047E-2,-3.5928364E-3,-1.7233396E-2,-2.2735089E-2,1.826048E-2,4.4889664E-3,-6.0025165E-3,-2.568556E-2,-1.9967733E-2,-3.685684E-2,-1.1142195E-2,-1.9822314E-2,-1.4896162E-2,-3.9842796E-2,-2.3953417E-2,-3.32027E-2,-2.568605E-2,-2.7905101E-2,-4.0915124E-2,-5.0366815E-2,-2.6043965E-2,-3.458738E-2,2.7582016E-2,-5.6460793E-3,3.9768048E-2,-2.620418E-2,-2.192168E-2,-3.3396326E-2,-2.4971027E-2,-1.607463E-2,2.4343153E-2,-2.8088415E-2,-4.199146E-2,2.8905634E-2,-8.309426E-3,-2.3455659E-2,-1.2190998E-2,-2.8063042E-2,-1.8072288E-2,-3.446473E-2,-3.9464138E-3,-6.8973373E-3,-1.5630601E-2,-7.5372085E-3,1.018325E-3,-1.226003E-2,-2.320334E-2,-1.3781804E-2,1.0206045E-2,9.240214E-3,-1.1777265E-3,-1.0635662E-4,-5.3232093E-3,1.0740419E-2,-1.751286E-2,-3.3420261E-3,-1.4769334E-2,1.240656E-2,2.0207433E-2,5.307436E-3,1.09044565E-2,1.1105114E-2,-1.1064298E-2,7.9167E-3,-1.9553557E-2,-1.9545712E-2,1.32767605E-2,-3.179075E-2,9.648292E-3,-1.6619885E-2,-2.5112364E-3,-2.7991863E-2,-1.8080913E-2,7.5016255E-3,-3.1229906E-2,-4.3148465E-2,1.3109001E-2,-1.18395435E-2,-2.6379177E-2,1.5148357E-2,-1.9103482E-2,-7.1711927E-3,-2.340712E-2,3.501146E-2,-3.0151822E-3,2.565818E-2,-7.071686E-3,3.4214426E-2,-4.495731E-3,-3.988767E-2,7.5221234E-3,-3.2302957E-2,2.4745988E-2,-4.8720162E-2,-5.534941E-3,1.36713125E-2,3.292148E-2,2.3752578E-2,1.3388718E-2,4.2799875E-2,3.806072E-3,2.121472E-2,3.3362266E-2,1.7254435E-2,-3.325683E-2,4.7320858E-2,2.1875978E-2,3.4623504E-2,7.471546E-3,1.5009067E-2,-3.8635128E-3,-1.34232035E-2,2.0223996E-2,4.7723364E-2,2.550882E-2,-1.9447901E-3,2.4027513E-2,-6.5125898E-3,-4.5219466E-2,-1.2760478E-2,3.5856694E-2,-3.183865E-2,4.539256E-3,3.6386978E-2,3.1734247E-2,4.1080363E-2,8.543365E-3,3.6456935E-2,4.0161602E-2,2.68152E-2,-1.6381826E-2,3.402963E-2,2.6503934E-2,3.7299294E-2,2.3966547E-2,-4.8908927E-2,3.9093655E-2,-1.0914503E-2,2.8894607E-2,3.8449723E-2,5.14697E-2,-1.3304118E-2,3.4262955E-2,3.6402937E-2,4.375131E-2,4.7947274E-4,3.3289853E-2,4.6978585E-2,5.1552188E-2,3.9230894E-2,8.0965976E-5,1.4548937E-2,-7.821859E-3,1.9195145E-2,5.483706E-3,-4.900521E-3,4.3467265E-2,-8.012636E-3,3.6033853E-3,2.3664523E-2,-1.7842426E-3,3.469533E-2,-1.4997288E-2,1.6832536E-2,2.7561653E-2,-1.0943203E-2,9.914383E-4,-2.1809625E-2,-4.2641726E-3,-1.3379961E-2,8.216945E-3,-8.047581E-3,2.6445348E-2,-3.1458908E-3,2.255676E-2,7.664192E-3,3.0508103E-2,1.7449465E-2,4.562899E-2,-1.5299152E-2,7.463446E-3,-3.481757E-2,5.448101E-4,4.6862774E-2,9.390981E-5,2.3066015E-3,-1.5144413E-2,3.858785E-2,-1.0800512E-2,2.3560781E-2,3.3147015E-2,-4.7618076E-3,2.4208589E-2,-2.9438376E-2,2.35253E-2,1.1413051E-2,-6.8867602E-3,-2.944795E-2,2.9274556E-3,1.275342E-2,3.6496643E-2,-2.5552555E-3,3.7878234E-2],"categories":[],"categories_nodes":[],"categories_segments":[],"categories_sizes":[],"default_left":[0,0,0,0,0,0,0,0,0,0,0,0,0,0,0,0,0,0,0,0,0,0,0,0,0,0,0,0,0,0,0,0,0,0,0,0,0,0,0,0,0,0,0,0,0,0,0,0,0,0,0,0,0,0,0,0,0,0,0,0,0,0,0,0,0,0,0,0,0,0,0,0,0,0,0,0,0,0,0,0,0,0,0,0,0,0,0,0,0,0,0,0,0,0,0,0,0,0,0,0,0,0,0,0,0,0,0,0,0,0,0,0,0,0,0,0,0,0,0,0,0,0,0,0,0,0,0,0,0,0,0,0,0,0,0,0,0,0,0,0,0,0,0,0,0,0,0,0,0,0,0,0,0,0,0,0,0,0,0,0,0,0,0,0,0,0,0,0,0,0,0,0,0,0,0,0,0,0,0,0,0,0,0,0,0,0,0,0,0,0,0,0,0,0,0,0,0,0,0,0,0,0,0,0,0,0,0,0,0,0,0,0,0,0,0,0,0,0,0,0,0,0,0,0,0,0,0,0,0,0,0,0,0,0,0,0,0,0,0,0,0,0,0,0,0,0,0,0,0,0,0,0,0,0,0,0,0,0,0,0,0,0,0,0,0,0,0,0,0,0,0,0,0,0,0,0,0,0,0,0,0,0,0,0,0,0,0,0,0,0,0,0,0,0,0,0,0,0,0,0,0,0,0,0,0,0,0,0,0,0,0,0,0,0,0,0,0,0,0,0,0,0,0,0,0,0,0,0,0,0,0,0,0,0,0,0,0,0,0,0,0,0,0,0,0,0,0,0,0,0,0,0,0,0,0,0,0,0,0,0,0,0,0,0,0,0,0,0,0,0,0,0,0,0,0,0,0,0,0,0,0,0,0,0,0,0,0,0,0,0,0,0,0,0,0,0,0,0,0,0,0,0,0,0,0,0,0,0,0,0,0,0,0,0,0,0,0,0,0,0,0,0,0,0,0,0,0,0,0,0,0,0,0,0,0,0,0,0,0,0,0,0,0,0,0,0,0,0,0,0,0,0,0,0,0,0,0,0,0,0,0,0,0,0,0,0,0,0,0],"id":1,"left_children":[1,3,5,7,9,11,13,15,17,19,21,23,25,27,29,31,33,35,37,39,41,43,45,47,49,51,53,55,57,59,61,63,65,67,69,71,73,75,77,79,81,83,85,87,89,91,93,95,97,99,101,103,105,107,109,111,113,115,117,119,121,123,125,127,129,131,133,135,137,139,141,143,-1,145,147,149,151,153,155,157,159,161,163,165,167,169,171,173,175,177,179,181,183,185,187,189,191,193,195,197,199,201,203,205,207,209,211,213,215,217,219,221,223,225,227,229,231,-1,-1,233,235,237,239,241,243,245,247,249,251,253,255,257,259,261,263,265,267,269,271,273,275,277,279,281,283,-1,285,-1,-1,-1,287,289,-1,291,293,295,297,299,301,303,305,307,309,311,313,315,317,319,321,323,325,327,329,331,333,335,337,339,-1,341,343,345,347,349,351,353,355,357,359,361,-1,363,365,367,369,371,373,375,377,379,381,383,-1,385,387,389,391,393,395,397,399,401,403,405,407,409,411,-1,413,-1,415,417,419,421,423,-1,425,427,429,431,433,-1,435,437,439,441,443,445,447,449,451,453,455,457,459,461,463,465,467,-1,-1,-1,-1,-1,-1,-1,-1,-1,-1,-1,-1,-1,-1,-1,-1,-1,-1,-1,-1,-1,-1,-1,-1,-1,-1,-1,-1,-1,-1,-1,-1,-1,-1,-1,-1,-1,-1,-1,-1,-1,-1,-1,-1,-1,-1,-1,-1,-1,-1,-1,-1,-1,-1,-1,-1,-1,-1,-1,-1,-1,-1,-1,-1,-1,-1,-1,-1,-1,-1,-1,-1,-1,-1,-1,-1,-1,-1,-1,-1,-1,-1,-1,-1,-1,-1,-1,-1,-1,-1,-1,-1,-1,-1,-1,-1,-1,-1,-1,-1,-1,-1,-1,-1,-1,-1,-1,-1,-1,-1,-1,-1,-1,-1,-1,-1,-1,-1,-1,-1,-1,-1,-1,-1,-1,-1,-1,-1,-1,-1,-1,-1,-1,-1,-1,-1,-1,-1,-1,-1,-1,-1,-1,-1,-1,-1,-1,-1,-1,-1,-1,-1,-1,-1,-1,-1,-1,-1,-1,-1,-1,-1,-1,-1,-1,-1,-1,-1,-1,-1,-1,-1,-1,-1,-1,-1,-1,-1,-1,-1,-1,-1,-1,-1,-1,-1,-1,-1,-1,-1,-1,-1,-1,-1,-1,-1,-1,-1,-1,-1,-1,-1,-1,-1,-1,-1,-1,-1,-1,-1,-1,-1,-1,-1,-1,-1,-1,-1,-1,-1],"loss_changes":[2.8601342E4,3.0756182E3,1.2655566E3,4.6083594E2,5.49864E2,5.362949E2,3.090852E2,4.949297E2,5.0313965E1,6.1209576E2,3.2851685E1,2.6578491E1,1.395332E2,1.371703E2,3.5332275E1,5.637793E1,2.8779382E2,1.6093994E1,2.1016748E2,4.32229E1,1.8741048E2,9.759644E0,1.2861313E1,5.8988037E0,1.5308716E1,1.8850586E1,3.232715E1,1.23272675E2,8.673874E0,1.337471E2,1.7953125E1,2.1185791E1,2.2514038E1,1.7803717E2,2.6982666E1,1.4875488E1,8.333618E0,4.5744453E1,1.7486816E1,1.9862793E1,1.235759E1,4.6170418E1,6.715979E1,9.213257E0,5.938904E0,1.4345406E1,2.7422256E0,4.963501E0,8.515076E0,1.2619232E1,9.75778E0,1.8814941E1,1.8241943E1,1.980249E1,3.368164E0,7.492638E1,7.669281E0,9.138096E0,4.139099E-1,1.4672546E1,9.847614E0,1.0426941E1,8.870276E1,1.037854E1,1.1238794E2,6.6430664E0,3.4616852E0,6.726459E1,4.2421997E1,1.0205811E1,1.3458679E1,8.030762E0,0E0,5.1835938E0,1.3099055E0,3.678598E0,2.634285E0,1.3288574E1,1.0028702E1,1.5510422E1,7.604248E0,8.57584E0,7.2388153E0,2.4948067E1,1.2789196E1,4.4011963E1,3.2313286E1,5.305397E0,9.574783E0,5.6686773E0,5.283325E0,9.290672E0,7.2995725E0,5.232935E0,9.5318985E-1,5.731262E0,4.654175E0,5.379944E0,8.483643E0,1.15035095E1,4.585205E0,1.9315801E0,6.29463E0,1.5410156E1,1.1626221E1,1.2250977E1,2.7867538E1,1.30546875E1,6.458252E0,1.7062988E0,1.9249902E0,6.847143E1,6.1941156E0,5.5293884E0,2.3813019E1,8.8161545E0,1.0734597E1,0E0,0E0,5.7472477E0,1.1448425E1,7.236065E0,8.452139E0,8.555359E0,2.8744917E0,6.633641E0,2.3015747E1,1.3174194E1,1.2149048E1,1.900364E1,1.1562744E1,6.1548767E0,9.119385E0,3.5248718E0,1.8180053E0,2.1756714E1,2.897752E1,1.5894943E1,7.5885463E0,1.117749E1,4.8431854E0,1.398761E1,5.0166473E0,7.3968506E0,1.0971436E1,0E0,4.723236E0,0E0,0E0,0E0,5.614926E0,2.8494873E0,0E0,1.5652832E1,7.3612976E0,4.2354717E0,6.857147E0,4.5099707E0,1.1970253E1,5.647476E0,4.142433E0,7.9318504E0,7.071787E0,1.2770157E1,5.891157E0,8.487936E0,9.249164E0,6.248337E0,1.1813314E1,1.426622E1,2.412175E1,1.48649025E1,2.1654469E1,3.899393E0,5.3996277E0,7.2280045E0,4.596039E0,1.8937745E0,0E0,6.353855E0,4.1982727E0,7.9070663E0,6.677744E0,3.1485682E0,4.8787885E0,1.8275886E0,3.0239305E0,7.320858E0,1.7740269E0,3.0192337E0,0E0,4.786499E0,9.805626E0,2.749939E0,3.8740325E0,7.6242676E0,1.2019638E1,9.987228E0,7.5830536E0,3.0962334E0,4.682907E0,1.1192722E0,0E0,8.02711E0,4.3744626E0,1.1166992E1,4.589777E0,5.4399414E0,8.051959E0,1.2498901E1,1.518335E1,3.0226963E1,1.0689697E1,3.8654785E0,4.575528E1,2.8498535E0,5.177723E0,0E0,1.1276855E0,0E0,2.5218153E0,3.0937754E1,2.0437439E1,3.351431E0,5.3777723E0,0E0,4.191803E0,1.5581432E1,5.9673386E0,8.506136E0,7.931732E0,0E0,9.809116E0,5.386694E0,6.751515E0,7.000702E0,7.968281E0,6.239742E0,3.0704193E0,2.7267876E0,4.1344905E0,5.541976E0,6.012085E0,1.4571519E0,6.045558E0,7.5416884E0,4.658588E0,3.7382812E1,8.6466675E0,0E0,0E0,0E0,0E0,0E0,0E0,0E0,0E0,0E0,0E0,0E0,0E0,0E0,0E0,0E0,0E0,0E0,0E0,0E0,0E0,0E0,0E0,0E0,0E0,0E0,0E0,0E0,0E0,0E0,0E0,0E0,0E0,0E0,0E0,0E0,0E0,0E0,0E0,0E0,0E0,0E0,0E0,0E0,0E0,0E0,0E0,0E0,0E0,0E0,0E0,0E0,0E0,0E0,0E0,0E0,0E0,0E0,0E0,0E0,0E0,0E0,0E0,0E0,0E0,0E0,0E0,0E0,0E0,0E0,0E0,0E0,0E0,0E0,0E0,0E0,0E0,0E0,0E0,0E0,0E0,0E0,0E0,0E0,0E0,0E0,0E0,0E0,0E0,0E0,0E0,0E0,0E0,0E0,0E0,0E0,0E0,0E0,0E0,0E0,0E0,0E0,0E0,0E0,0E0,0E0,0E0,0E0,0E0,0E0,0E0,0E0,0E0,0E0,0E0,0E0,0E0,0E0,0E0,0E0,0E0,0E0,0E0,0E0,0E0,0E0,0E0,0E0,0E0,0E0,0E0,0E0,0E0,0E0,0E0,0E0,0E0,0E0,0E0,0E0,0E0,0E0,0E0,0E0,0E0,0E0,0E0,0E0,0E0,0E0,0E0,0E0,0E0,0E0,0E0,0E0,0E0,0E0,0E0,0E0,0E0,0E0,0E0,0E0,0E0,0E0,0E0,0E0,0E0,0E0,0E0,0E0,0E0,0E0,0E0,0E0,0E0,0E0,0E0,0E0,0E0,0E0,0E0,0E0,0E0,0E0,0E0,0E0,0E0,0E0,0E0,0E0,0E0,0E0,0E0,0E0,0E0,0E0,0E0,0E0,0E0,0E0,0E0,0E0,0E0,0E0,0E0,0E0,0E0,0E0,0E0,0E0,0E0,0E0,0E0,0E0,0E0,0E0,0E0,0E0,0E0],"parents":[2147483647,0,0,1,1,2,2,3,3,4,4,5,5,6,6,7,7,8,8,9,9,10,10,11,11,12,12,13,13,14,14,15,15,16,16,17,17,18,18,19,19,20,20,21,21,22,22,23,23,24,24,25,25,26,26,27,27,28,28,29,29,30,30,31,31,32,32,33,33,34,34,35,35,36,36,37,37,38,38,39,39,40,40,41,41,42,42,43,43,44,44,45,45,46,46,47,47,48,48,49,49,50,50,51,51,52,52,53,53,54,54,55,55,56,56,57,57,58,58,59,59,60,60,61,61,62,62,63,63,64,64,65,65,66,66,67,67,68,68,69,69,70,70,71,71,73,73,74,74,75,75,76,76,77,77,78,78,79,79,80,80,81,81,82,82,83,83,84,84,85,85,86,86,87,87,88,88,89,89,90,90,91,91,92,92,93,93,94,94,95,95,96,96,97,97,98,98,99,99,100,100,101,101,102,102,103,103,104,104,105,105,106,106,107,107,108,108,109,109,110,110,111,111,112,112,113,113,114,114,115,115,116,116,119,119,120,120,121,121,122,122,123,123,124,124,125,125,126,126,127,127,128,128,129,129,130,130,131,131,132,132,133,133,134,134,135,135,136,136,137,137,138,138,139,139,140,140,141,141,142,142,143,143,144,144,146,146,150,150,151,151,153,153,154,154,155,155,156,156,157,157,158,158,159,159,160,160,161,161,162,162,163,163,164,164,165,165,166,166,167,167,168,168,169,169,170,170,171,171,172,172,173,173,174,174,175,175,176,176,177,177,179,179,180,180,181,181,182,182,183,183,184,184,185,185,186,186,187,187,188,188,189,189,191,191,192,192,193,193,194,194,195,195,196,196,197,197,198,198,199,199,200,200,201,201,203,203,204,204,205,205,206,206,207,207,208,208,209,209,210,210,211,211,212,212,213,213,214,214,215,215,216,216,218,218,220,220,221,221,222,222,223,223,224,224,226,226,227,227,228,228,229,229,230,230,232,232,233,233,234,234,235,235,236,236,237,237,238,238,239,239,240,240,241,241,242,242,243,243,244,244,245,245,246,246,247,247,248,248],"right_children":[2,4,6,8,10,12,14,16,18,20,22,24,26,28,30,32,34,36,38,40,42,44,46,48,50,52,54,56,58,60,62,64,66,68,70,72,74,76,78,80,82,84,86,88,90,92,94,96,98,100,102,104,106,108,110,112,114,116,118,120,122,124,126,128,130,132,134,136,138,140,142,144,-1,146,148,150,152,154,156,158,160,162,164,166,168,170,172,174,176,178,180,182,184,186,188,190,192,194,196,198,200,202,204,206,208,210,212,214,216,218,220,222,224,226,228,230,232,-1,-1,234,236,238,240,242,244,246,248,250,252,254,256,258,260,262,264,266,268,270,272,274,276,278,280,282,284,-1,286,-1,-1,-1,288,290,-1,292,294,296,298,300,302,304,306,308,310,312,314,316,318,320,322,324,326,328,330,332,334,336,338,340,-1,342,344,346,348,350,352,354,356,358,360,362,-1,364,366,368,370,372,374,376,378,380,382,384,-1,386,388,390,392,394,396,398,400,402,404,406,408,410,412,-1,414,-1,416,418,420,422,424,-1,426,428,430,432,434,-1,436,438,440,442,444,446,448,450,452,454,456,458,460,462,464,466,468,-1,-1,-1,-1,-1,-1,-1,-1,-1,-1,-1,-1,-1,-1,-1,-1,-1,-1,-1,-1,-1,-1,-1,-1,-1,-1,-1,-1,-1,-1,-1,-1,-1,-1,-1,-1,-1,-1,-1,-1,-1,-1,-1,-1,-1,-1,-1,-1,-1,-1,-1,-1,-1,-1,-1,-1,-1,-1,-1,-1,-1,-1,-1,-1,-1,-1,-1,-1,-1,-1,-1,-1,-1,-1,-1,-1,-1,-1,-1,-1,-1,-1,-1,-1,-1,-1,-1,-1,-1,-1,-1,-1,-1,-1,-1,-1,-1,-1,-1,-1,-1,-1,-1,-1,-1,-1,-1,-1,-1,-1,-1,-1,-1,-1,-1,-1,-1,-1,-1,-1,-1,-1,-1,-1,-1,-1,-1,-1,-1,-1,-1,-1,-1,-1,-1,-1,-1,-1,-1,-1,-1,-1,-1,-1,-1,-1,-1,-1,-1,-1,-1,-1,-1,-1,-1,-1,-1,-1,-1,-1,-1,-1,-1,-1,-1,-1,-1,-1,-1,-1,-1,-1,-1,-1,-1,-1,-1,-1,-1,-1,-1,-1,-1,-1,-1,-1,-1,-1,-1,-1,-1,-1,-1,-1,-1,-1,-1,-1,-1,-1,-1,-1,-1,-1,-1,-1,-1,-1,-1,-1,-1,-1,-1,-1,-1,-1,-1,-1,-1,-1],"split_conditions":[1E0,2.545138E1,9E0,1.1E1,6E0,3.721308E1,1.7207976E2,3E0,1.9E1,4E0,4.369724E1,5.755053E-1,1.8292519E2,1.394556E2,1.9753383E2,2E0,6E0,2.2E1,1.2192865E1,3E0,5E0,3.4E1,2.1460514E1,3.260764E1,7.671689E-1,8E0,2.3301929E2,1.3793748E2,8.238029E-1,1.6568239E2,1.9515175E2,1.8E1,2.2649744E1,5E0,7.007665E1,7.7618146E-1,3.1936846E1,1.8E1,7.3702824E-1,1.2319497E1,9.332102E0,1.3724695E1,6.088715E-1,4.3954122E-1,4.6728826E0,2.8040457E1,2.6474686E1,1.3E1,5.6946663E1,3.1219917E1,8.574968E1,8.142735E1,1.6188406E2,2.7085361E1,5.9E1,1.1199067E2,1.2730154E2,6.3486284E-1,2.6195606E1,4.8762813E-1,2.5103945E1,8.4507054E-1,2.4263597E2,4.97253E-1,1.2192865E1,3.404404E0,4.8E1,4E0,4.897779E-1,6.9160527E-1,7.588445E-1,1.8041254E1,-5.183262E-2,1.7E1,3.2294758E1,1.0563185E1,4.271525E-1,3.7E1,1.0623299E1,2.5513508E1,2.7807932E1,2.7028725E1,2.7674593E1,4.208463E0,2.6750444E1,6.10515E0,2.8877905E1,3.436949E-1,1.2429285E1,2.7691467E1,4.5335585E-1,5.3350794E-1,9.837622E1,2.0348607E2,7.859365E-1,1.9E1,5.9256E-1,5.836906E-1,5.956014E1,6.0213375E-1,6.451832E0,2.1451878E1,2.7248423E1,4.4E1,8.7421393E-1,1.4095338E2,1.44375E2,6.239573E-1,8.238029E-1,1.2267635E2,6.1068356E-1,1.06689156E2,1.1E1,2.6511112E-1,1.4629237E2,5.7950836E-1,1.8041254E1,-1.155095E-2,-4.1272156E-2,4.5937115E-1,6.260795E-1,1.8942941E2,1.7365927E2,1E1,3.9E1,4.2E1,2.5732027E1,4.8213515E0,2.0289276E1,1.9E1,2.2862173E1,1.362701E1,1.6E1,2.4306044E1,3.0329979E1,1.2822065E1,2.2116385E1,1.9550749E1,2.3962475E1,2.1E1,8.237372E-1,2.2E1,2.2E1,5.116894E-1,2.084053E1,1.3031173E-3,2.144969E1,-1.0759434E-2,2.112152E-2,-4.5202315E-2,4.447524E-1,8.234485E0,5.7438977E-2,3.1E1,2.2624186E1,2.4826738E1,1.8769497E1,5.7024324E-1,7.2289467E0,2E0,5.3E1,7.0710373E0,5.304125E-1,3.7E1,4E1,4.788135E-1,3.3E1,4.6053082E-1,6.419689E-1,3.1747696E1,3.0605835E1,1.0249803E1,7.7618146E-1,2.9E1,5.0763005E-1,2.792006E1,2.9E1,3.4E1,3.3256534E-2,2.1460514E1,7.1133995E0,5.278552E-1,3.9E1,8.861966E0,4.0651742E-1,5.590543E-1,6.877253E-1,8.446959E-1,4.8E1,2.2624186E1,-1.6202217E-2,4.1E1,6.2190485E-1,2.651525E-1,3.4308292E1,1.3715234E0,3.6E1,5.910512E-1,1.4E1,5.556851E-1,5.19793E-1,3.1662868E1,4.86302E-4,2E1,2.746753E1,5.7414025E-1,4.8440084E-1,2.2E1,1.5729971E2,1.1204755E2,4E1,2.2E1,2.2020412E1,6.304824E-1,1.8E1,4.8867744E-1,1.5868626E2,1.3537247E-2,3.259112E2,-6.5992097E-3,6.2E1,8.3576416E1,1.06689156E2,4.1008177E-1,1.3474083E2,-1.9585181E-2,4.5E1,2.1770584E1,1.4917387E2,5.229768E-1,2.7138607E1,4.32798E-2,2.5103945E1,4.1661248E-1,3E1,4.810692E-1,4.3E1,1.8292519E2,2.4593653E1,3.4E1,2.868848E1,4.4341427E-1,1.6367789E2,1.5729971E2,4.5E1,6.575865E-1,6.9160527E-1,3.259112E2,2E1,-2.608776E-2,-3.434961E-2,-2.1792382E-2,-3.602587E-2,-1.0434608E-2,5.2061625E-2,-2.6522469E-2,-2.174039E-2,3.4256406E-2,-1.6741278E-2,-2.4695596E-2,-2.033492E-2,-3.228211E-2,-1.1623859E-2,-1.9368246E-2,1.7003454E-2,-1.155904E-2,-1.7276047E-2,-3.5928364E-3,-1.7233396E-2,-2.2735089E-2,1.826048E-2,4.4889664E-3,-6.0025165E-3,-2.568556E-2,-1.9967733E-2,-3.685684E-2,-1.1142195E-2,-1.9822314E-2,-1.4896162E-2,-3.9842796E-2,-2.3953417E-2,-3.32027E-2,-2.568605E-2,-2.7905101E-2,-4.0915124E-2,-5.0366815E-2,-2.6043965E-2,-3.458738E-2,2.7582016E-2,-5.6460793E-3,3.9768048E-2,-2.620418E-2,-2.192168E-2,-3.3396326E-2,-2.4971027E-2,-1.607463E-2,2.4343153E-2,-2.8088415E-2,-4.199146E-2,2.8905634E-2,-8.309426E-3,-2.3455659E-2,-1.2190998E-2,-2.8063042E-2,-1.8072288E-2,-3.446473E-2,-3.9464138E-3,-6.8973373E-3,-1.5630601E-2,-7.5372085E-3,1.018325E-3,-1.226003E-2,-2.320334E-2,-1.3781804E-2,1.0206045E-2,9.240214E-3,-1.1777265E-3,-1.0635662E-4,-5.3232093E-3,1.0740419E-2,-1.751286E-2,-3.3420261E-3,-1.4769334E-2,1.240656E-2,2.0207433E-2,5.307436E-3,1.09044565E-2,1.1105114E-2,-1.1064298E-2,7.9167E-3,-1.9553557E-2,-1.9545712E-2,1.32767605E-2,-3.179075E-2,9.648292E-3,-1.6619885E-2,-2.5112364E-3,-2.7991863E-2,-1.8080913E-2,7.5016255E-3,-3.1229906E-2,-4.3148465E-2,1.3109001E-2,-1.18395435E-2,-2.6379177E-2,1.5148357E-2,-1.9103482E-2,-7.1711927E-3,-2.340712E-2,3.501146E-2,-3.0151822E-3,2.565818E-2,-7.071686E-3,3.4214426E-2,-4.495731E-3,-3.988767E-2,7.5221234E-3,-3.2302957E-2,2.4745988E-2,-4.8720162E-2,-5.534941E-3,1.36713125E-2,3.292148E-2,2.3752578E-2,1.3388718E-2,4.2799875E-2,3.806072E-3,2.121472E-2,3.3362266E-2,1.7254435E-2,-3.325683E-2,4.7320858E-2,2.1875978E-2,3.4623504E-2,7.471546E-3,1.5009067E-2,-3.8635128E-3,-1.34232035E-2,2.0223996E-2,4.7723364E-2,2.550882E-2,-1.9447901E-3,2.4027513E-2,-6.5125898E-3,-4.5219466E-2,-1.2760478E-2,3.5856694E-2,-3.183865E-2,4.539256E-3,3.6386978E-2,3.1734247E-2,4.1080363E-2,8.543365E-3,3.6456935E-2,4.0161602E-2,2.68152E-2,-1.6381826E-2,3.402963E-2,2.6503934E-2,3.7299294E-2,2.3966547E-2,-4.8908927E-2,3.9093655E-2,-1.0914503E-2,2.8894607E-2,3.8449723E-2,5.14697E-2,-1.3304118E-2,3.4262955E-2,3.6402937E-2,4.375131E-2,4.7947274E-4,3.3289853E-2,4.6978585E-2,5.1552188E-2,3.9230894E-2,8.0965976E-5,1.4548937E-2,-7.821859E-3,1.9195145E-2,5.483706E-3,-4.900521E-3,4.3467265E-2,-8.012636E-3,3.6033853E-3,2.3664523E-2,-1.7842426E-3,3.469533E-2,-1.4997288E-2,1.6832536E-2,2.7561653E-2,-1.0943203E-2,9.914383E-4,-2.1809625E-2,-4.2641726E-3,-1.3379961E-2,8.216945E-3,-8.047581E-3,2.6445348E-2,-3.1458908E-3,2.255676E-2,7.664192E-3,3.0508103E-2,1.7449465E-2,4.562899E-2,-1.5299152E-2,7.463446E-3,-3.481757E-2,5.448101E-4,4.6862774E-2,9.390981E-5,2.3066015E-3,-1.5144413E-2,3.858785E-2,-1.0800512E-2,2.3560781E-2,3.3147015E-2,-4.7618076E-3,2.4208589E-2,-2.9438376E-2,2.35253E-2,1.1413051E-2,-6.8867602E-3,-2.944795E-2,2.9274556E-3,1.275342E-2,3.6496643E-2,-2.5552555E-3,3.7878234E-2],"split_indices":[1,3,0,0,0,12,12,0,14,0,9,10,2,2,12,0,0,5,3,0,0,14,2,3,13,0,2,12,13,2,2,14,15,0,12,4,2,8,13,15,9,15,7,10,15,3,3,14,2,3,2,12,12,3,14,2,2,13,3,7,3,7,12,13,3,12,14,0,10,4,10,3,0,11,15,3,13,11,15,3,3,3,2,12,3,15,3,4,15,3,4,4,12,12,7,5,13,13,9,10,12,12,3,8,4,2,2,10,13,12,7,12,11,10,12,10,3,0,0,7,4,2,15,5,14,11,3,12,15,8,3,3,14,3,2,9,2,3,3,8,7,8,14,4,15,0,3,0,0,0,4,12,0,11,3,3,3,10,2,0,8,2,13,14,5,4,8,13,10,3,3,15,7,11,4,3,14,5,0,2,15,2,11,2,13,4,13,10,8,3,0,5,7,7,3,9,8,10,8,13,4,3,0,8,3,10,10,14,9,12,5,14,3,13,14,4,9,0,2,0,8,2,2,4,12,0,5,3,15,7,3,0,3,4,14,13,11,2,3,11,3,10,9,2,11,13,4,12,14,0,0,0,0,0,0,0,0,0,0,0,0,0,0,0,0,0,0,0,0,0,0,0,0,0,0,0,0,0,0,0,0,0,0,0,0,0,0,0,0,0,0,0,0,0,0,0,0,0,0,0,0,0,0,0,0,0,0,0,0,0,0,0,0,0,0,0,0,0,0,0,0,0,0,0,0,0,0,0,0,0,0,0,0,0,0,0,0,0,0,0,0,0,0,0,0,0,0,0,0,0,0,0,0,0,0,0,0,0,0,0,0,0,0,0,0,0,0,0,0,0,0,0,0,0,0,0,0,0,0,0,0,0,0,0,0,0,0,0,0,0,0,0,0,0,0,0,0,0,0,0,0,0,0,0,0,0,0,0,0,0,0,0,0,0,0,0,0,0,0,0,0,0,0,0,0,0,0,0,0,0,0,0,0,0,0,0,0,0,0,0,0,0,0,0,0,0,0,0,0,0,0,0,0,0,0,0,0,0,0,0,0,0,0,0,0,0,0,0,0],"split_type":[0,0,0,0,0,0,0,0,0,0,0,0,0,0,0,0,0,0,0,0,0,0,0,0,0,0,0,0,0,0,0,0,0,0,0,0,0,0,0,0,0,0,0,0,0,0,0,0,0,0,0,0,0,0,0,0,0,0,0,0,0,0,0,0,0,0,0,0,0,0,0,0,0,0,0,0,0,0,0,0,0,0,0,0,0,0,0,0,0,0,0,0,0,0,0,0,0,0,0,0,0,0,0,0,0,0,0,0,0,0,0,0,0,0,0,0,0,0,0,0,0,0,0,0,0,0,0,0,0,0,0,0,0,0,0,0,0,0,0,0,0,0,0,0,0,0,0,0,0,0,0,0,0,0,0,0,0,0,0,0,0,0,0,0,0,0,0,0,0,0,0,0,0,0,0,0,0,0,0,0,0,0,0,0,0,0,0,0,0,0,0,0,0,0,0,0,0,0,0,0,0,0,0,0,0,0,0,0,0,0,0,0,0,0,0,0,0,0,0,0,0,0,0,0,0,0,0,0,0,0,0,0,0,0,0,0,0,0,0,0,0,0,0,0,0,0,0,0,0,0,0,0,0,0,0,0,0,0,0,0,0,0,0,0,0,0,0,0,0,0,0,0,0,0,0,0,0,0,0,0,0,0,0,0,0,0,0,0,0,0,0,0,0,0,0,0,0,0,0,0,0,0,0,0,0,0,0,0,0,0,0,0,0,0,0,0,0,0,0,0,0,0,0,0,0,0,0,0,0,0,0,0,0,0,0,0,0,0,0,0,0,0,0,0,0,0,0,0,0,0,0,0,0,0,0,0,0,0,0,0,0,0,0,0,0,0,0,0,0,0,0,0,0,0,0,0,0,0,0,0,0,0,0,0,0,0,0,0,0,0,0,0,0,0,0,0,0,0,0,0,0,0,0,0,0,0,0,0,0,0,0,0,0,0,0,0,0,0,0,0,0,0,0,0,0,0,0,0,0,0,0,0,0,0,0,0,0,0,0,0,0,0,0,0,0,0,0,0,0,0,0,0,0,0,0,0,0,0,0,0,0,0,0,0,0,0,0,0,0],"sum_hessian":[5.4783035E4,3.6198836E4,1.8584201E4,2.458684E4,1.1611995E4,1.4094208E4,4.489994E3,1.6232036E4,8.354804E3,9.934177E3,1.6778185E3,3.1804285E3,1.0913779E4,2.4458933E3,2.0441011E3,7.835146E3,8.396891E3,2.7046575E3,5.650146E3,2.3799033E3,7.554274E3,9.9846313E2,6.793553E2,2.39346E3,7.869683E2,7.8241646E3,3.0896145E3,2.0404635E3,4.0542975E2,7.7643524E2,1.2676658E3,4.176183E3,3.658963E3,4.782038E3,3.6148523E3,2.6222546E3,8.24028E1,4.1738148E1,5.6084077E3,7.157204E2,1.6641829E3,3.2409734E3,4.313301E3,6.420045E2,3.5645862E2,6.386339E2,4.0721416E1,1.5734728E3,8.199873E2,7.294766E2,5.7491737E1,5.2854365E3,2.538728E3,2.0361847E3,1.0534298E3,1.2077993E3,8.326642E2,3.9818314E2,7.246604E0,6.3895667E2,1.3747864E2,7.2045825E2,5.472076E2,1.1755759E3,3.0006072E3,3.451434E3,2.0752893E2,4.2831377E3,4.9890002E2,1.3789514E3,2.235901E3,2.593052E3,2.9202665E1,7.9656044E1,2.7467527E0,6.743371E0,3.4994778E1,5.4303394E3,1.7806847E2,3.9748785E2,3.1823257E2,7.9162866E2,8.725542E2,2.6542227E3,5.867507E2,3.726697E3,5.8660345E2,1.0567072E2,5.363338E2,5.7463145E0,3.507123E2,4.7372272E2,1.6491118E2,7.9948506E0,3.2726566E1,1.1699884E2,1.4564739E3,2.8824652E2,5.317407E2,4.249831E2,3.0449353E2,5.998353E0,5.1493385E1,3.034216E3,2.2512207E3,2.2884885E3,2.5023946E2,6.047314E2,1.4314532E3,1.0454298E3,7.9999676E0,8.811103E2,3.26689E2,5.69445E2,2.6321918E2,3.1569556E2,8.248758E1,1.4997451E0,5.7468586E0,7.399297E1,5.649637E2,6.873549E1,6.874315E1,7.0771136E2,1.274689E1,9.6488205E1,4.5071936E2,8.5063684E2,3.2493903E2,2.3990776E1,2.9766162E3,3.227604E2,3.1286736E3,2.0453008E2,2.9988608E0,2.9136506E3,1.3694873E3,2.524689E2,2.4643112E2,1.3032594E3,7.569202E1,2.1239922E3,1.11908745E2,1.0478495E3,1.5452024E3,1.9978772E0,7.765817E1,1.4981575E0,1.248595E0,3.496205E0,3.247166E0,3.749423E0,3.1245354E1,4.948851E3,4.8148825E2,9.74123E0,1.6832722E2,1.1992654E1,3.8549518E2,2.3156227E2,8.66703E1,3.790563E2,4.1257236E2,8.368217E2,3.5732487E1,4.178942E2,2.2363284E3,1.5867195E2,4.2807874E2,9.114179E2,2.8152793E3,2.7841983E2,3.0818362E2,1.2990241E1,9.268048E1,3.4548965E2,1.9084415E2,3.497636E0,2.2486787E0,2.7977331E1,3.22735E2,2.9407242E2,1.796503E2,7.49618E0,1.57415E2,2.998035E0,4.9968157E0,2.323606E1,9.490509E0,1.15248886E2,1.7499555E0,1.4207249E3,3.5749126E1,2.8449658E2,3.7499456E0,3.849916E2,1.4674915E2,1.072463E2,3.177368E2,3.1499199E1,2.7299432E2,4.498785E0,1.499568E0,1.4747361E1,3.674602E1,3.002967E3,3.1249018E1,2.236223E3,1.4997925E1,1.01099384E3,1.2774948E3,1.2991044E1,2.372484E2,3.8499265E2,2.1973875E2,1.3937041E3,3.7749207E1,2.249875E0,1.0431799E3,1.249995E0,6.749973E0,2.7568503E2,6.0542523E2,4.249132E0,3.2243988E2,1.999744E0,5.6744525E2,3.549398E1,2.277252E2,2.137114E2,1.0198417E2,4.4995117E0,7.798807E1,3.324659E1,4.0746387E1,4.2447278E2,1.4049088E2,4.998952E1,1.8745964E1,4.99989E0,6.3743256E1,8.74911E0,6.989623E2,6.497923E0,6.2489676E0,7.974167E1,1.6746534E1,2.4522981E2,2.0548955E2,2.799544E2,5.7068243E2,2.5227672E2,7.266232E1,5.2448635E0,1.8745913E1,2.3700852E3,6.06531E2,1.2490706E0,3.2151132E2,5.515891E2,2.5770845E3,1.95288E2,9.242076E0,1.249447E0,1.7494138E0,2.0592036E3,8.5444684E2,1.2118231E3,1.5766425E2,7.9989696E0,2.4446994E2,1.2696446E2,1.1946665E2,5.885277E2,7.1473175E2,6.719864E1,8.493377E0,1.032467E3,1.091525E3,2.6723173E1,8.518558E1,8.882575E2,1.5959204E2,1.4802665E3,6.493597E1,6.566921E1,1.1988954E1,1.4975797E0,1.7495862E0,1.7497301E0,1.9996929E0,3.941244E3,1.0076072E3,3.238812E2,1.5760704E2,7.493272E0,2.2479587E0,5.9693005E1,1.08634224E2,8.244944E0,3.7477105E0,1.306667E2,2.5482848E2,9.117326E1,1.40389E2,8.217457E1,4.4957356E0,1.9190219E2,1.8715413E2,2.886284E2,1.23943954E2,7.251365E2,1.11685234E2,1.4992562E1,2.0739925E1,3.2866913E2,8.922506E1,1.871709E3,3.6461945E2,6.7471776E0,1.5192477E2,3.1937723E2,1.08701515E2,5.666818E2,3.4473608E2,1.5701918E3,1.2450874E3,2.9743166E1,2.4867665E2,2.8070355E2,2.7480078E1,8.9933E0,3.9969413E0,9.018232E1,2.4981568E0,3.0851324E2,3.6976418E1,1.0466578E2,8.617837E1,1.2492069E0,2.248429E0,2.6478758E1,1.4985749E0,2.1484898E1,3.012501E2,5.496407E0,2.88576E2,1.5341612E2,2.6234188E1,4.747574E0,2.7486062E0,3.248202E0,1.541668E2,1.2491491E0,1.7488859E0,3.7476401E0,1.2491758E0,2.1736807E1,1.4992523E0,8.241979E0,1.2485301E0,9.999905E0,1.05248985E2,1.3749756E3,4.574917E1,2.824947E1,7.499656E0,2.5249777E1,2.592468E2,2.499964E0,1.2499815E0,1.0749456E1,3.7424216E2,1.2949951E2,1.724962E1,6.799782E1,3.9248478E1,5.4986057E0,3.1223816E2,1.3499679E1,1.7999521E1,6.2497797E0,2.6674454E2,1.2499733E0,3.248812E0,3.4988375E0,1.1248524E1,2.2492313E0,3.449679E1,2.331482E3,6.71485E2,3.7499902E0,2.749903E1,6.6524274E2,1.5709801E3,9.748799E0,5.249126E0,6.987471E2,3.122468E2,1.1877454E3,8.9749435E1,8.241047E0,4.7499976E0,5.7499146E0,2.3149849E2,3.5349326E2,3.1499374E1,1.9489298E1,2.0024947E2,8.674697E1,1.3069572E3,4.999407E0,3.2749798E1,8.5019745E2,1.9298254E2,4.749981E0,1.9999919E0,7.59874E1,1.9969763E2,4.8144446E2,1.23980804E2,1.7496285E0,2.4995034E0,2.819466E2,4.0493275E1,5.616958E2,5.749472E0,5.9990726E0,2.949491E1,1.5447853E2,7.324667E1,1.0523036E2,1.0848103E2,6.5488045E1,3.6496124E1,2.9744099E1,4.8243965E1,4.2493463E0,2.8997242E1,2.8247194E1,1.2499193E1,1.3249292E1,4.1122348E2,1.3124149E2,9.249399E0,3.524255E1,1.4746973E1,1.6246395E1,2.4995682E0,3.4999077E0,1.4999822E0,4.849595E1,1.5247307E1,1.7497953E0,6.9993153E0,7.7986145E1,6.2097614E2,1.7492296E0,4.748693E0,3.999307E0,2.2496605E0,3.624626E1,4.349541E1,1.0998038E1,5.7484956E0,1.3973837E2,1.0549144E2,4.749803E0,2.0073975E2],"tree_param":{"num_deleted":"0","num_feature":"17","num_nodes":"469","size_leaf_vector":"1"}},{"base_weights":[-2.3169888E-4,-5.017142E-1,9.7515947E-1,-3.302315E-1,-7.850676E-1,1.1219621E0,5.161392E-1,-6.372518E-1,9.948127E-2,-8.572818E-1,-5.470085E-1,7.7617604E-1,1.2226473E0,3.007135E-1,8.114809E-1,-7.63766E-1,-4.011435E-1,-8.298115E-2,2.7348176E-1,-9.6127206E-1,-8.013974E-1,-5.335918E-1,-9.421373E-1,7.8360724E-1,-1.7483984E-1,1.1688223E0,1.4286809E0,3.8790798E-1,-2.3596568E-1,7.1555734E-1,9.474712E-1,-8.4347326E-1,-6.798832E-1,-3.8080925E-1,-6.78877E-1,-4.5791518E-2,-4.0651748E-1,3.23798E-1,-7.057763E-2,-9.541519E-1,-1.5869117E0,1.2400815E0,-8.1946397E-1,-6.1882716E-1,-4.740007E-1,-5.5264837E-1,-1.0378445E0,8.204537E-1,6.650577E-1,-3.594099E-2,1.46726975E-2,1.133522E0,1.2189394E0,1.3387794E0,1.5303661E0,2.3900308E-1,7.1028554E-1,-2.8977013E-1,2.0601691E-1,8.797658E-1,-2.9311818E-1,1.0840096E0,8.0213696E-1,-9.602838E-1,-8.0041003E-1,-6.523078E-1,-9.2535883E-1,-3.531862E-1,-4.6558145E-1,-1.1323881E0,-6.332829E-1,1.6371055E-1,-7.316101E-2,-3.4983233E-1,-9.7295904E-1,5.587534E-1,2.8355312E-1,2.5310805E-1,-1.8869302E-1,-1.0483224E0,-9.2811906E-1,-4.776321E-3,-4.8874028E-2,1.6367459E0,-8.5552704E-1,4.3403532E-2,-8.2060015E-1,-2.6183861E-1,-6.293023E-1,1.4971095E0,-4.8191023E-1,-1.0996534E0,6.6203766E-2,-1.2998841E0,-8.649492E-1,9.49666E-1,8.0059505E-1,1.0449812E0,6.3145345E-1,8.2065475E-1,-1.6408806E-1,1.1392154E0,-3.7063444E-1,1.0367423E0,1.2491646E0,1.367129E0,9.675241E-1,1.4801252E0,1.6232816E0,3.8071167E-1,-1.9192813E-1,7.171476E-1,-5.963496E-1,-5.682515E-1,-2.0761025E-1,1.0512441E0,-1.6865648E-1,7.5357586E-1,9.755854E-1,-3.2033676E-1,3.2915745E-2,1.0886195E0,-6.5180045E-3,2.2660725E-1,9.8300993E-1,-1.0617833E0,-8.593296E-1,1.2006925E0,-8.137854E-1,-7.130873E-1,-6.167942E-1,-1.2443769E0,-8.632383E-1,-3.8151115E-1,-2.6405412E-1,1.0495503E0,-4.7092745E-1,-5.531475E-3,-1.170858E0,-8.787364E-1,-5.273201E-1,2.1552546E-1,-1.241513E-1,-5.707745E-2,-3.204684E-1,-6.0709643E-1,-2.8198257E-1,-3.6393933E-2,-1.0898546E0,5.187695E-1,1.5392278E0,4.233263E-1,2.3784505E-1,-2.8226396E-1,3.2483685E-1,-4.683682E-1,-1.1098876E-1,-1.0154132E0,-5.4051626E-2,-8.782712E-1,-9.973905E-1,-3.3524737E-1,1.8115896E0,4.7239758E-2,-1.152854E0,-8.011493E-1,-9.62845E-1,-8.077289E-1,1.335955E-1,-7.409834E-1,-5.937287E-1,7.511696E-3,5.1188264E-2,-3.3484402E-1,-5.4148483E-1,-3.7574378E-1,-4.5661412E-2,4.6294206E-1,-5.4213375E-1,-7.4480735E-2,-1.4186333E0,2.0694374E-1,-9.2864835E-1,6.5826654E-1,1.0317638E0,6.2209314E-1,8.2170755E-1,5.028201E-1,1.2076038E0,5.6724274E-3,6.4760137E-1,6.5431665E-3,2.9970124E-2,-4.8234695E-1,3.9862028E-1,1.2840445E0,1.1089956E0,-5.0341513E-2,1.4104539E0,1.1161424E0,-1.6765715E0,1.254807E0,3.8468271E-1,8.623575E-1,1.377292E0,-3.5213843E-1,1.0337411E0,1.4899082E0,6.814697E-1,4.88252E-2,1.10816555E-2,8.607534E-2,5.987522E-1,1.2799774E-2,-3.074691E-1,7.2825664E-1,-8.7828E-2,-3.0186385E-2,6.4557814E-3,-6.085675E-1,2.4723869E-2,2.0256281E-1,-3.936417E-1,1.2785276E0,-1.1091722E-2,-3.1826097E-1,3.3090726E-2,8.132243E-1,1.624736E-1,3.931045E-1,1.0286051E0,-1.7968974E-1,-5.7344204E-1,9.556306E-1,1.1502048E0,6.7147124E-1,-2.840438E-1,6.224996E-1,1.149452E0,-2.6866453E-2,-3.514977E-2,-2.0869501E-2,-2.8606243E-2,-1.2866287E-2,5.1371615E-2,-2.4197143E-2,-3.536821E-2,-1.3039742E-2,-2.2787243E-2,4.776893E-2,-1.8964974E-2,-2.2567697E-2,-4.167698E-2,-2.6336761E-2,1.7076873E-3,-1.1110278E-2,-2.260724E-2,1.9442309E-2,-8.599889E-3,7.6991646E-3,3.9494585E-2,-1.39129795E-2,-4.2048063E-2,-2.4029305E-2,-4.195855E-2,2.1464478E-2,-2.7777772E-2,-1.9510137E-2,-9.876206E-3,3.424663E-3,1.320074E-2,1.6899986E-2,-8.883259E-3,6.071351E-3,-2.1268502E-3,-1.719679E-2,-5.1650526E-3,8.301898E-3,-1.996976E-2,1.6233117E-3,-1.0304489E-2,-2.1806689E-2,1.8455543E-2,-3.5793193E-2,-1.2297295E-2,1.606857E-2,-2.8867155E-2,5.5513915E-2,3.144301E-3,1.3223675E-2,-6.3826754E-3,7.857288E-3,8.559719E-4,1.7177899E-3,-2.0491784E-2,-8.1784045E-3,1.1305187E-2,-2.0404642E-3,-2.1492999E-2,1.2911009E-3,-7.759797E-3,-2.7786143E-2,-3.3222433E-2,-2.6117578E-2,-3.8999382E-2,-3.386839E-2,-2.8277056E-2,-3.0454276E-2,1.7695881E-2,1.9953113E-2,5.6655716E-2,-1.852606E-2,2.0720517E-2,-3.9419573E-2,-5.24125E-3,-3.2551467E-2,-2.3741314E-2,-2.4101553E-2,-3.083436E-2,-9.410233E-3,-3.8791236E-2,-2.039119E-2,9.897193E-3,-2.0978516E-2,-3.7019245E-2,-1.4808517E-2,-2.071738E-2,-1.2855311E-2,-5.7936762E-3,-1.957912E-2,-1.4770154E-2,1.5430791E-2,-3.2840997E-2,-2.278095E-2,2.685601E-2,-3.4463506E-2,2.129968E-2,-3.202183E-2,2.5469672E-2,-4.3992944E-2,-1.0467404E-2,1.384278E-2,-5.035676E-3,-3.3621892E-2,-1.9756163E-2,2.498726E-2,7.6873065E-3,3.9694123E-2,2.9249215E-2,1.6179487E-2,3.384549E-2,2.7438467E-2,2.3637047E-2,3.552952E-2,-9.944728E-3,4.631003E-2,2.641034E-2,2.3187054E-2,-1.1352749E-2,4.365372E-3,1.9844115E-2,4.570728E-3,-2.0164993E-2,-1.3716766E-2,2.5575753E-2,3.917905E-2,1.8618692E-2,2.7261853E-2,3.4121852E-2,4.7386225E-2,6.0336394E-3,3.3849206E-2,-3.265185E-2,5.976612E-3,-5.5848077E-2,3.954845E-2,3.5821512E-2,-1.4776193E-2,2.0545933E-2,3.4314003E-2,-6.2337467E-3,4.170373E-2,2.9517103E-2,2.101298E-2,-2.6694505E-2,9.289004E-3,3.330497E-2,4.484654E-2,1.0232397E-2,-5.1813037E-3,3.0531092E-2,1.2278007E-2,-4.109337E-3,1.564482E-2,2.6601035E-2,-3.6918274E-3,4.68094E-2,-1.0558414E-2,9.792775E-3,2.5218382E-2,2.0061705E-2,2.7737949E-2,-1.1879326E-2,-3.900424E-2,-1.5066522E-2,4.258546E-2,3.4577902E-3,-1.0633468E-2,-3.7531648E-2,6.501513E-4,4.6661425E-2,-1.2857927E-2,2.0665046E-2,3.409029E-2,2.2622958E-2,3.0186238E-2,-3.5163579E-3,1.5837645E-2,-4.299548E-2,3.1115284E-2,-1.1332977E-2,-7.670533E-3,1.9587673E-2,-4.7124214E-3,-1.9874103E-2,3.170403E-2,1.6346164E-2,2.2372286E-4,3.469795E-2,2.5515549E-2,-1.1249248E-2,1.6678595E-3,-2.0830296E-2,-3.523035E-3,3.0976502E-2,2.5367042E-2,3.864112E-2],"categories":[],"categories_nodes":[],"categories_segments":[],"categories_sizes":[],"default_left":[0,0,0,0,0,0,0,0,0,0,0,0,0,0,0,0,0,0,0,0,0,0,0,0,0,0,0,0,0,0,0,0,0,0,0,0,0,0,0,0,0,0,0,0,0,0,0,0,0,0,0,0,0,0,0,0,0,0,0,0,0,0,0,0,0,0,0,0,0,0,0,0,0,0,0,0,0,0,0,0,0,0,0,0,0,0,0,0,0,0,0,0,0,0,0,0,0,0,0,0,0,0,0,0,0,0,0,0,0,0,0,0,0,0,0,0,0,0,0,0,0,0,0,0,0,0,0,0,0,0,0,0,0,0,0,0,0,0,0,0,0,0,0,0,0,0,0,0,0,0,0,0,0,0,0,0,0,0,0,0,0,0,0,0,0,0,0,0,0,0,0,0,0,0,0,0,0,0,0,0,0,0,0,0,0,0,0,0,0,0,0,0,0,0,0,0,0,0,0,0,0,0,0,0,0,0,0,0,0,0,0,0,0,0,0,0,0,0,0,0,0,0,0,0,0,0,0,0,0,0,0,0,0,0,0,0,0,0,0,0,0,0,0,0,0,0,0,0,0,0,0,0,0,0,0,0,0,0,0,0,0,0,0,0,0,0,0,0,0,0,0,0,0,0,0,0,0,0,0,0,0,0,0,0,0,0,0,0,0,0,0,0,0,0,0,0,0,0,0,0,0,0,0,0,0,0,0,0,0,0,0,0,0,0,0,0,0,0,0,0,0,0,0,0,0,0,0,0,0,0,0,0,0,0,0,0,0,0,0,0,0,0,0,0,0,0,0,0,0,0,0,0,0,0,0,0,0,0,0,0,0,0,0,0,0,0,0,0,0,0,0,0,0,0,0,0,0,0,0,0,0,0,0,0,0,0,0,0,0,0,0,0,0,0,0,0,0,0,0,0,0,0,0,0,0,0,0,0,0,0,0,0,0,0,0,0,0,0,0,0,0,0,0,0,0,0,0,0,0,0,0,0,0,0,0,0,0],"id":2,"left_children":[1,3,5,7,9,11,13,15,17,19,21,23,25,27,29,31,33,35,37,39,41,43,45,47,49,51,53,55,57,59,61,63,65,67,69,71,73,75,77,79,81,83,85,87,89,91,93,95,97,-1,99,101,103,105,107,109,111,113,115,117,119,121,123,125,127,129,131,133,135,137,139,141,143,145,147,149,151,153,155,157,159,-1,-1,161,163,-1,165,167,169,171,173,175,177,179,181,183,185,187,189,191,193,195,197,199,201,203,205,207,209,211,213,215,217,219,221,223,225,227,229,231,-1,233,-1,235,237,239,241,243,245,247,249,251,253,255,257,259,261,-1,263,265,267,269,271,273,275,277,279,281,283,285,287,289,291,293,295,297,299,301,-1,303,305,307,309,311,313,315,317,319,321,323,325,-1,-1,327,329,331,-1,333,335,337,339,341,343,345,347,349,351,353,355,357,359,-1,-1,361,363,365,367,-1,369,371,373,375,377,379,381,383,385,387,389,-1,-1,391,393,395,397,399,401,-1,-1,403,-1,405,407,409,-1,411,-1,413,415,417,419,421,423,425,427,429,431,433,435,-1,-1,-1,-1,-1,-1,-1,-1,-1,-1,-1,-1,-1,-1,-1,-1,-1,-1,-1,-1,-1,-1,-1,-1,-1,-1,-1,-1,-1,-1,-1,-1,-1,-1,-1,-1,-1,-1,-1,-1,-1,-1,-1,-1,-1,-1,-1,-1,-1,-1,-1,-1,-1,-1,-1,-1,-1,-1,-1,-1,-1,-1,-1,-1,-1,-1,-1,-1,-1,-1,-1,-1,-1,-1,-1,-1,-1,-1,-1,-1,-1,-1,-1,-1,-1,-1,-1,-1,-1,-1,-1,-1,-1,-1,-1,-1,-1,-1,-1,-1,-1,-1,-1,-1,-1,-1,-1,-1,-1,-1,-1,-1,-1,-1,-1,-1,-1,-1,-1,-1,-1,-1,-1,-1,-1,-1,-1,-1,-1,-1,-1,-1,-1,-1,-1,-1,-1,-1,-1,-1,-1,-1,-1,-1,-1,-1,-1,-1,-1,-1,-1,-1,-1,-1,-1,-1,-1,-1,-1,-1,-1,-1,-1,-1,-1,-1,-1,-1,-1,-1,-1,-1,-1,-1,-1,-1,-1,-1,-1,-1,-1,-1,-1,-1,-1,-1,-1,-1,-1,-1,-1,-1,-1,-1,-1,-1,-1,-1],"loss_changes":[2.6804184E4,1.7582822E3,1.2532715E3,2.9748484E3,2.3408984E2,4.8986328E2,2.8674756E2,3.9254932E2,2.983761E2,6.005664E1,1.634668E1,2.2624023E1,1.19390625E2,1.22219955E2,2.4131714E1,5.667334E1,2.5666687E1,5.518415E1,8.33006E1,1.4761475E1,2.5233789E2,1.5331909E1,3.2686157E0,1.324646E1,4.9599323E0,1.3941406E1,1.8580566E1,1.07620056E2,8.748667E0,1.8565503E2,1.4679443E1,2.129541E1,2.7670532E1,9.857178E0,5.73201E0,2.3613255E1,1.4843002E1,3.9526367E1,2.3543863E1,7.8894043E0,2.1280746E0,5.1418503E1,1.8580566E1,4.556427E0,2.901477E1,7.6793594E0,2.5726318E0,5.409546E0,8.96582E0,0E0,3.3753984E0,4.4061523E1,1.8342773E1,1.1367432E1,2.5083008E0,9.396272E1,6.7843323E0,7.344183E0,1.2919634E1,1.0907288E1,6.3101187E0,2.6429749E0,3.968892E1,1.1142334E1,8.691431E1,7.6730957E0,7.2381287E0,8.059021E0,8.9882965E0,7.7692413E-1,6.9665833E0,7.1250715E0,1.446468E1,7.3593254E0,4.608345E0,2.3222E1,2.280423E1,6.41759E0,9.7454815E0,1.739087E1,8.933594E0,0E0,0E0,1.817044E1,2.8013253E0,0E0,1.7910156E1,8.246511E0,4.4300537E0,1.5276604E0,1.5661682E1,3.0926113E0,3.0231347E0,4.3252068E0,3.7530212E0,6.855316E0,7.3670654E0,4.659973E0,7.021454E0,2.3881173E-1,3.638473E0,2.0795898E1,4.8869427E1,1.1245099E2,1.4412598E1,4.5461426E0,8.137688E0,4.407959E0,1.2999878E0,7.429985E1,9.019636E0,6.374756E0,1.6300924E0,4.640112E0,1.9416847E1,4.5085506E0,5.8188834E0,1.4675262E1,1.6392822E1,5.422226E0,0E0,2.1762085E0,0E0,2.1313145E1,1.677118E1,9.588257E0,8.512695E0,1.8847172E1,7.4523926E0,1.7528748E1,8.181671E1,3.6668777E0,4.8278503E0,9.903137E0,1.6325882E1,5.0809145E-1,6.3193207E0,0E0,1.0679398E0,7.0297775E0,4.709709E0,9.136316E0,8.823821E0,1.22752905E1,8.227419E0,4.799408E0,7.1135044E0,3.0321538E0,2.158371E0,1.5243866E1,1.029715E1,9.893265E0,1.3612473E1,2.7604153E0,4.630494E0,9.655485E0,8.065613E0,5.0891113E0,0E0,4.249634E0,7.456543E0,3.7389011E0,2.8847656E0,1.921936E0,9.8995113E-1,1.5637207E1,7.5374756E0,3.4259644E0,3.8521018E0,5.1418915E0,8.721924E0,0E0,0E0,6.872383E0,6.7000732E0,4.2387986E0,0E0,4.6379256E0,4.6094713E0,4.340518E0,9.0485764E-1,4.3447196E-1,1.8254242E0,4.840971E0,2.7466736E0,8.826775E0,5.1412354E0,9.204461E0,3.616806E0,5.7433567E0,4.622986E0,0E0,0E0,1.6377788E0,3.3030767E0,1.1845215E1,2.2898438E1,0E0,1.5220394E0,1.4617432E1,5.5745697E0,1.0124023E1,5.93147E0,7.687666E0,4.1550293E0,3.450933E0,4.3580933E0,3.4052734E0,3.117433E0,0E0,0E0,3.5623856E1,1.4330673E1,2.930305E1,6.9853E0,4.0947876E0,3.641566E0,0E0,0E0,4.6591644E0,0E0,8.307568E0,5.4267483E0,3.793026E0,0E0,3.2389288E0,0E0,6.4262238E0,9.496833E0,1.2327644E1,6.3936157E0,6.5719423E0,1.9340916E0,4.930031E0,1.9525452E0,9.684904E0,6.169075E0,2.8711689E1,7.2576294E0,0E0,0E0,0E0,0E0,0E0,0E0,0E0,0E0,0E0,0E0,0E0,0E0,0E0,0E0,0E0,0E0,0E0,0E0,0E0,0E0,0E0,0E0,0E0,0E0,0E0,0E0,0E0,0E0,0E0,0E0,0E0,0E0,0E0,0E0,0E0,0E0,0E0,0E0,0E0,0E0,0E0,0E0,0E0,0E0,0E0,0E0,0E0,0E0,0E0,0E0,0E0,0E0,0E0,0E0,0E0,0E0,0E0,0E0,0E0,0E0,0E0,0E0,0E0,0E0,0E0,0E0,0E0,0E0,0E0,0E0,0E0,0E0,0E0,0E0,0E0,0E0,0E0,0E0,0E0,0E0,0E0,0E0,0E0,0E0,0E0,0E0,0E0,0E0,0E0,0E0,0E0,0E0,0E0,0E0,0E0,0E0,0E0,0E0,0E0,0E0,0E0,0E0,0E0,0E0,0E0,0E0,0E0,0E0,0E0,0E0,0E0,0E0,0E0,0E0,0E0,0E0,0E0,0E0,0E0,0E0,0E0,0E0,0E0,0E0,0E0,0E0,0E0,0E0,0E0,0E0,0E0,0E0,0E0,0E0,0E0,0E0,0E0,0E0,0E0,0E0,0E0,0E0,0E0,0E0,0E0,0E0,0E0,0E0,0E0,0E0,0E0,0E0,0E0,0E0,0E0,0E0,0E0,0E0,0E0,0E0,0E0,0E0,0E0,0E0,0E0,0E0,0E0,0E0,0E0,0E0,0E0,0E0,0E0,0E0,0E0,0E0,0E0,0E0,0E0,0E0,0E0,0E0,0E0,0E0,0E0,0E0,0E0,0E0,0E0,0E0,0E0,0E0,0E0,0E0,0E0,0E0,0E0,0E0],"parents":[2147483647,0,0,1,1,2,2,3,3,4,4,5,5,6,6,7,7,8,8,9,9,10,10,11,11,12,12,13,13,14,14,15,15,16,16,17,17,18,18,19,19,20,20,21,21,22,22,23,23,24,24,25,25,26,26,27,27,28,28,29,29,30,30,31,31,32,32,33,33,34,34,35,35,36,36,37,37,38,38,39,39,40,40,41,41,42,42,43,43,44,44,45,45,46,46,47,47,48,48,50,50,51,51,52,52,53,53,54,54,55,55,56,56,57,57,58,58,59,59,60,60,61,61,62,62,63,63,64,64,65,65,66,66,67,67,68,68,69,69,70,70,71,71,72,72,73,73,74,74,75,75,76,76,77,77,78,78,79,79,80,80,83,83,84,84,86,86,87,87,88,88,89,89,90,90,91,91,92,92,93,93,94,94,95,95,96,96,97,97,98,98,99,99,100,100,101,101,102,102,103,103,104,104,105,105,106,106,107,107,108,108,109,109,110,110,111,111,112,112,113,113,114,114,115,115,116,116,117,117,118,118,119,119,121,121,123,123,124,124,125,125,126,126,127,127,128,128,129,129,130,130,131,131,132,132,133,133,134,134,135,135,136,136,138,138,139,139,140,140,141,141,142,142,143,143,144,144,145,145,146,146,147,147,148,148,149,149,150,150,151,151,152,152,153,153,154,154,155,155,156,156,157,157,159,159,160,160,161,161,162,162,163,163,164,164,165,165,166,166,167,167,168,168,169,169,170,170,173,173,174,174,175,175,177,177,178,178,179,179,180,180,181,181,182,182,183,183,184,184,185,185,186,186,187,187,188,188,189,189,190,190,193,193,194,194,195,195,196,196,198,198,199,199,200,200,201,201,202,202,203,203,204,204,205,205,206,206,207,207,208,208,211,211,212,212,213,213,214,214,215,215,216,216,219,219,221,221,222,222,223,223,225,225,227,227,228,228,229,229,230,230,231,231,232,232,233,233,234,234,235,235,236,236,237,237,238,238],"right_children":[2,4,6,8,10,12,14,16,18,20,22,24,26,28,30,32,34,36,38,40,42,44,46,48,50,52,54,56,58,60,62,64,66,68,70,72,74,76,78,80,82,84,86,88,90,92,94,96,98,-1,100,102,104,106,108,110,112,114,116,118,120,122,124,126,128,130,132,134,136,138,140,142,144,146,148,150,152,154,156,158,160,-1,-1,162,164,-1,166,168,170,172,174,176,178,180,182,184,186,188,190,192,194,196,198,200,202,204,206,208,210,212,214,216,218,220,222,224,226,228,230,232,-1,234,-1,236,238,240,242,244,246,248,250,252,254,256,258,260,262,-1,264,266,268,270,272,274,276,278,280,282,284,286,288,290,292,294,296,298,300,302,-1,304,306,308,310,312,314,316,318,320,322,324,326,-1,-1,328,330,332,-1,334,336,338,340,342,344,346,348,350,352,354,356,358,360,-1,-1,362,364,366,368,-1,370,372,374,376,378,380,382,384,386,388,390,-1,-1,392,394,396,398,400,402,-1,-1,404,-1,406,408,410,-1,412,-1,414,416,418,420,422,424,426,428,430,432,434,436,-1,-1,-1,-1,-1,-1,-1,-1,-1,-1,-1,-1,-1,-1,-1,-1,-1,-1,-1,-1,-1,-1,-1,-1,-1,-1,-1,-1,-1,-1,-1,-1,-1,-1,-1,-1,-1,-1,-1,-1,-1,-1,-1,-1,-1,-1,-1,-1,-1,-1,-1,-1,-1,-1,-1,-1,-1,-1,-1,-1,-1,-1,-1,-1,-1,-1,-1,-1,-1,-1,-1,-1,-1,-1,-1,-1,-1,-1,-1,-1,-1,-1,-1,-1,-1,-1,-1,-1,-1,-1,-1,-1,-1,-1,-1,-1,-1,-1,-1,-1,-1,-1,-1,-1,-1,-1,-1,-1,-1,-1,-1,-1,-1,-1,-1,-1,-1,-1,-1,-1,-1,-1,-1,-1,-1,-1,-1,-1,-1,-1,-1,-1,-1,-1,-1,-1,-1,-1,-1,-1,-1,-1,-1,-1,-1,-1,-1,-1,-1,-1,-1,-1,-1,-1,-1,-1,-1,-1,-1,-1,-1,-1,-1,-1,-1,-1,-1,-1,-1,-1,-1,-1,-1,-1,-1,-1,-1,-1,-1,-1,-1,-1,-1,-1,-1,-1,-1,-1,-1,-1,-1,-1,-1,-1,-1,-1,-1,-1],"split_conditions":[1E0,6E0,9E0,4E0,7.007665E1,3.721308E1,1.7678914E2,3E0,5E0,2E1,8.086341E-1,8.086341E-1,1.9756305E2,1.44375E2,2.1726988E2,2E0,2.2104921E1,1.8823633E1,1.7459723E1,7.7618146E-1,1.5E1,2.2E1,7.671689E-1,5.768017E-1,8.574968E1,1.4629802E2,2.3301929E2,1.4828296E2,1.7207976E2,1.7679141E2,2.0756155E2,1.8E1,1.8826103E1,1.2822065E1,5.6152326E-1,3.972913E0,7.964367E-1,1.6E1,5.71556E-1,1.3E1,1.7740932E1,1.7E1,1.2E1,8.142735E1,1.5E1,7.305925E-1,1.742537E2,3.8799074E-1,6.451832E0,-3.594099E-2,7.588445E-1,1.6188336E2,1.8E1,7.859317E-1,2.812823E2,1.17721794E2,7.588445E-1,5.2304506E-1,2.5E1,1.8298833E2,4.9E1,8.742715E-1,2.685084E2,4.4082746E-1,1.4E1,2E1,1.8E1,5.314013E-1,7E0,4.4086483E-1,2E1,4.9308285E-1,3.8E1,2E1,7.438948E-1,2.1E1,6.0571656E0,1.7742937E1,2E1,1.9E1,1.2E1,-4.776321E-3,-4.8874028E-2,1.7E1,1.7E1,4.3403532E-2,3.7E1,2.9541168E-1,4.2418244E-1,4.082932E-1,1.2580977E2,1.620056E1,2.653988E1,7.305925E-1,1.7E1,2.7041644E-1,4.2208266E-1,2.2E1,5.197744E-1,7.964367E-1,8.446959E-1,1.7E1,2.2E1,2.4E1,8.4507054E-1,4.5937672E-1,1.8E1,2.812823E2,6.3E1,1.1586792E2,2E1,4.5E1,7.140085E-1,5.52183E-1,5.7024324E-1,6.35522E-1,8.086341E-1,7.0002884E-1,1.7E1,6.4937246E-1,3.2915745E-2,2.075364E2,-6.5180045E-3,2.2345534E2,2.4E1,4.8213515E0,7.767599E0,1.8E1,7.7618146E-1,3.2302969E0,1.4E1,1.5E1,5.4E1,5.615061E-1,4.6174613E-1,1.0653597E1,2.7674593E1,-5.531475E-3,2.3588587E1,5.755053E-1,7.247707E-1,4.1664365E-1,3.0435748E0,1.3E1,5.478295E-1,1.717083E1,2.6E1,7.913707E-1,3.1936846E1,6.5764105E-1,1.8E1,3.7E1,3.7E1,5.2723545E-1,4.5210987E-1,2.6531235E1,3.4E1,7.1500688E0,-5.4051626E-2,3.1947145E1,4.1584483E-1,1.6E1,4.0461862E-1,5.8954015E0,1.4101881E1,2.6196127E0,1.1669085E1,2.3662586E0,7.46752E1,2.1E1,4.821406E-1,7.511696E-3,5.1188264E-2,1.1974313E1,2.4429186E1,2.9E1,-4.5661412E-2,1.3851623E1,3.9E1,7.092554E-1,3.4196793E1,3.1936846E1,8.742715E-1,2.5440803E-1,2.6511112E-1,5.956014E1,4.697559E-1,5.895247E-1,5.603058E-1,2.2E1,8.154008E0,6.5431665E-3,2.9970124E-2,7.859365E-1,8.237372E-1,6.1422706E-1,1.9E1,-5.0341513E-2,1.7420415E2,2.5E1,5.7024324E-1,8E0,1.5729971E2,2.0348607E2,4.8E1,7.913707E-1,1.6188406E2,5.9E1,2.8E1,4.88252E-2,1.10816555E-2,9.015337E1,3.1E1,2.3E1,6.9579375E-1,1.2421852E2,5.16274E-1,-3.0186385E-2,6.4557814E-3,1.4828296E2,2.4723869E-2,1.4E1,8.238029E-1,4.8440716E-1,-1.1091722E-2,4.7E1,3.3090726E-2,1.8E1,2.9E1,2.3E1,8.7421393E-1,6.4275014E-1,6.4941865E-1,1.9756305E2,1E1,4.2E1,7.859365E-1,3.259112E2,2.812823E2,-2.6866453E-2,-3.514977E-2,-2.0869501E-2,-2.8606243E-2,-1.2866287E-2,5.1371615E-2,-2.4197143E-2,-3.536821E-2,-1.3039742E-2,-2.2787243E-2,4.776893E-2,-1.8964974E-2,-2.2567697E-2,-4.167698E-2,-2.6336761E-2,1.7076873E-3,-1.1110278E-2,-2.260724E-2,1.9442309E-2,-8.599889E-3,7.6991646E-3,3.9494585E-2,-1.39129795E-2,-4.2048063E-2,-2.4029305E-2,-4.195855E-2,2.1464478E-2,-2.7777772E-2,-1.9510137E-2,-9.876206E-3,3.424663E-3,1.320074E-2,1.6899986E-2,-8.883259E-3,6.071351E-3,-2.1268502E-3,-1.719679E-2,-5.1650526E-3,8.301898E-3,-1.996976E-2,1.6233117E-3,-1.0304489E-2,-2.1806689E-2,1.8455543E-2,-3.5793193E-2,-1.2297295E-2,1.606857E-2,-2.8867155E-2,5.5513915E-2,3.144301E-3,1.3223675E-2,-6.3826754E-3,7.857288E-3,8.559719E-4,1.7177899E-3,-2.0491784E-2,-8.1784045E-3,1.1305187E-2,-2.0404642E-3,-2.1492999E-2,1.2911009E-3,-7.759797E-3,-2.7786143E-2,-3.3222433E-2,-2.6117578E-2,-3.8999382E-2,-3.386839E-2,-2.8277056E-2,-3.0454276E-2,1.7695881E-2,1.9953113E-2,5.6655716E-2,-1.852606E-2,2.0720517E-2,-3.9419573E-2,-5.24125E-3,-3.2551467E-2,-2.3741314E-2,-2.4101553E-2,-3.083436E-2,-9.410233E-3,-3.8791236E-2,-2.039119E-2,9.897193E-3,-2.0978516E-2,-3.7019245E-2,-1.4808517E-2,-2.071738E-2,-1.2855311E-2,-5.7936762E-3,-1.957912E-2,-1.4770154E-2,1.5430791E-2,-3.2840997E-2,-2.278095E-2,2.685601E-2,-3.4463506E-2,2.129968E-2,-3.202183E-2,2.5469672E-2,-4.3992944E-2,-1.0467404E-2,1.384278E-2,-5.035676E-3,-3.3621892E-2,-1.9756163E-2,2.498726E-2,7.6873065E-3,3.9694123E-2,2.9249215E-2,1.6179487E-2,3.384549E-2,2.7438467E-2,2.3637047E-2,3.552952E-2,-9.944728E-3,4.631003E-2,2.641034E-2,2.3187054E-2,-1.1352749E-2,4.365372E-3,1.9844115E-2,4.570728E-3,-2.0164993E-2,-1.3716766E-2,2.5575753E-2,3.917905E-2,1.8618692E-2,2.7261853E-2,3.4121852E-2,4.7386225E-2,6.0336394E-3,3.3849206E-2,-3.265185E-2,5.976612E-3,-5.5848077E-2,3.954845E-2,3.5821512E-2,-1.4776193E-2,2.0545933E-2,3.4314003E-2,-6.2337467E-3,4.170373E-2,2.9517103E-2,2.101298E-2,-2.6694505E-2,9.289004E-3,3.330497E-2,4.484654E-2,1.0232397E-2,-5.1813037E-3,3.0531092E-2,1.2278007E-2,-4.109337E-3,1.564482E-2,2.6601035E-2,-3.6918274E-3,4.68094E-2,-1.0558414E-2,9.792775E-3,2.5218382E-2,2.0061705E-2,2.7737949E-2,-1.1879326E-2,-3.900424E-2,-1.5066522E-2,4.258546E-2,3.4577902E-3,-1.0633468E-2,-3.7531648E-2,6.501513E-4,4.6661425E-2,-1.2857927E-2,2.0665046E-2,3.409029E-2,2.2622958E-2,3.0186238E-2,-3.5163579E-3,1.5837645E-2,-4.299548E-2,3.1115284E-2,-1.1332977E-2,-7.670533E-3,1.9587673E-2,-4.7124214E-3,-1.9874103E-2,3.170403E-2,1.6346164E-2,2.2372286E-4,3.469795E-2,2.5515549E-2,-1.1249248E-2,1.6678595E-3,-2.0830296E-2,-3.523035E-3,3.0976502E-2,2.5367042E-2,3.864112E-2],"split_indices":[1,0,0,0,12,12,12,0,0,14,13,13,2,2,12,0,12,12,2,4,11,8,10,10,2,2,2,12,12,2,2,14,9,9,4,12,4,11,13,8,6,5,5,12,5,4,9,4,12,0,10,6,14,10,2,2,7,16,5,9,11,7,12,13,11,8,5,13,14,4,5,13,8,14,13,8,9,2,14,5,0,0,0,8,8,0,11,7,10,4,12,2,6,7,8,16,16,5,7,7,10,11,14,11,13,4,5,6,5,12,5,5,13,4,10,16,13,10,8,10,0,9,0,2,11,12,2,8,7,12,5,5,8,10,4,2,2,0,12,10,13,13,2,5,7,6,8,16,9,7,5,8,5,13,10,9,14,2,0,6,16,5,4,9,2,12,2,2,12,8,4,0,0,6,9,11,0,6,11,4,2,2,13,7,13,9,7,4,13,5,6,0,0,7,4,10,14,0,6,5,10,0,6,9,8,16,9,14,5,0,0,2,8,8,7,2,16,0,0,9,0,5,13,13,0,11,0,11,11,5,4,16,13,2,5,11,7,12,12,0,0,0,0,0,0,0,0,0,0,0,0,0,0,0,0,0,0,0,0,0,0,0,0,0,0,0,0,0,0,0,0,0,0,0,0,0,0,0,0,0,0,0,0,0,0,0,0,0,0,0,0,0,0,0,0,0,0,0,0,0,0,0,0,0,0,0,0,0,0,0,0,0,0,0,0,0,0,0,0,0,0,0,0,0,0,0,0,0,0,0,0,0,0,0,0,0,0,0,0,0,0,0,0,0,0,0,0,0,0,0,0,0,0,0,0,0,0,0,0,0,0,0,0,0,0,0,0,0,0,0,0,0,0,0,0,0,0,0,0,0,0,0,0,0,0,0,0,0,0,0,0,0,0,0,0,0,0,0,0,0,0,0,0,0,0,0,0,0,0,0,0,0,0,0,0,0,0,0,0,0,0,0,0,0,0,0,0,0,0,0,0,0,0,0,0,0,0],"split_type":[0,0,0,0,0,0,0,0,0,0,0,0,0,0,0,0,0,0,0,0,0,0,0,0,0,0,0,0,0,0,0,0,0,0,0,0,0,0,0,0,0,0,0,0,0,0,0,0,0,0,0,0,0,0,0,0,0,0,0,0,0,0,0,0,0,0,0,0,0,0,0,0,0,0,0,0,0,0,0,0,0,0,0,0,0,0,0,0,0,0,0,0,0,0,0,0,0,0,0,0,0,0,0,0,0,0,0,0,0,0,0,0,0,0,0,0,0,0,0,0,0,0,0,0,0,0,0,0,0,0,0,0,0,0,0,0,0,0,0,0,0,0,0,0,0,0,0,0,0,0,0,0,0,0,0,0,0,0,0,0,0,0,0,0,0,0,0,0,0,0,0,0,0,0,0,0,0,0,0,0,0,0,0,0,0,0,0,0,0,0,0,0,0,0,0,0,0,0,0,0,0,0,0,0,0,0,0,0,0,0,0,0,0,0,0,0,0,0,0,0,0,0,0,0,0,0,0,0,0,0,0,0,0,0,0,0,0,0,0,0,0,0,0,0,0,0,0,0,0,0,0,0,0,0,0,0,0,0,0,0,0,0,0,0,0,0,0,0,0,0,0,0,0,0,0,0,0,0,0,0,0,0,0,0,0,0,0,0,0,0,0,0,0,0,0,0,0,0,0,0,0,0,0,0,0,0,0,0,0,0,0,0,0,0,0,0,0,0,0,0,0,0,0,0,0,0,0,0,0,0,0,0,0,0,0,0,0,0,0,0,0,0,0,0,0,0,0,0,0,0,0,0,0,0,0,0,0,0,0,0,0,0,0,0,0,0,0,0,0,0,0,0,0,0,0,0,0,0,0,0,0,0,0,0,0,0,0,0,0,0,0,0,0,0,0,0,0,0,0,0,0,0,0,0,0,0,0,0,0,0,0,0,0,0,0,0,0,0,0,0,0,0,0,0,0,0,0,0,0,0,0,0,0,0,0,0,0],"sum_hessian":[5.4796418E4,3.6190242E4,1.8606176E4,2.2547111E4,1.3643129E4,1.4096445E4,4.50973E3,1.3150725E4,9.396388E3,1.0465778E4,3.1773508E3,3.1809023E3,1.0915543E4,2.6088335E3,1.9008964E3,8.561156E3,4.5895684E3,4.586921E3,4.809467E3,3.652664E3,6.813114E3,3.0752795E3,1.02071434E2,3.1564143E3,2.4488148E1,8.659877E3,2.2556665E3,2.2444534E3,3.643801E2,1.1183251E3,7.825713E2,4.385194E3,4.175963E3,4.2786763E3,3.1089194E2,4.1150483E3,4.7187225E2,4.1959043E3,6.1356226E2,3.614059E3,3.8605072E1,5.9172062E1,6.753942E3,1.261511E3,1.8137686E3,2.1470354E1,8.060108E1,2.4034695E3,7.529447E2,2.9951954E0,2.1492952E1,5.094882E3,3.5649949E3,1.2047208E3,1.0509458E3,1.5364943E3,7.079592E2,3.2514337E2,3.923673E1,9.61865E2,1.5646005E2,4.0016556E2,3.8240573E2,1.1754473E3,3.2097463E3,3.757521E3,4.1844177E2,3.2310144E3,1.0476619E3,2.6223005E1,2.846689E2,4.749006E2,3.6401477E3,4.30417E2,4.1455257E1,6.117188E2,3.5841858E3,1.6373013E2,4.4983212E2,7.742045E2,2.8398545E3,1.2459432E0,3.7359127E1,4.9938488E1,9.233575E0,2.7468033E0,6.751195E3,3.6702515E1,1.2248085E3,6.496588E0,1.807272E3,1.0984341E1,1.0486012E1,2.9449389E1,5.1151695E1,3.1394336E2,2.0895261E3,5.8740433E1,6.942043E2,3.249785E0,1.8243168E1,5.0759116E3,1.897E1,5.122799E2,3.0527148E3,1.1167611E3,8.7959694E1,6.9310315E2,3.578426E2,1.1563525E3,3.8014163E2,7.047095E2,3.2497663E0,7.272506E1,2.5241832E2,1.1496336E1,2.774039E1,4.1896814E2,5.4289685E2,1.5421062E2,2.249445E0,3.989158E2,1.249734E0,9.198057E1,2.9042517E2,5.813946E2,5.940527E2,2.0722078E1,3.1890242E3,1.3787635E3,2.3787573E3,6.509859E1,3.533432E2,2.44936E3,7.816544E2,2.9968157E0,1.044665E3,1.2485327E0,2.4974474E1,8.363743E1,2.010315E2,4.0267136E2,7.2229256E1,3.4190234E3,2.2112439E2,8.816737E1,3.4224963E2,4.7455244E0,3.6709732E1,5.892195E2,2.249933E1,8.812137E2,2.702972E3,1.8997885E1,1.4473225E2,9.671291E1,3.531192E2,7.440513E2,3.0153214E1,1.6594153E3,1.1804393E3,3.992395E0,4.594609E1,2.4960365E0,6.7375383E0,5.9449087E3,8.062861E2,1.4980098E1,2.1722418E1,2.9109717E2,9.337113E2,1.2490137E0,5.247575E0,5.229455E2,1.2843264E3,4.7438173E0,6.2405233E0,6.4914804E0,3.9945316E0,2.745464E0,2.6703924E1,2.7431269E0,4.840857E1,7.098957E1,2.4295378E2,2.2422429E2,1.8653019E3,1.4498013E1,4.424242E1,1.7496916E1,6.7670734E2,1.2499093E0,1.9998758E0,1.1743846E1,6.4993215E0,8.691234E2,4.2067886E3,1.097304E1,7.996959E0,4.9828708E2,1.39928055E1,3.0324707E3,2.0244167E1,2.3735569E1,1.0930256E3,3.9963822E0,8.396331E1,6.838607E2,9.242434E0,3.5634387E2,1.4987237E0,4.923878E2,6.639648E2,1.374616E2,2.4268002E2,6.952106E2,9.498941E0,1.9998703E0,1.249896E0,7.122567E1,1.4993899E0,7.873342E1,1.736849E2,9.997483E0,1.4988523E0,2.5491253E1,2.249138E0,3.8022375E2,3.8744392E1,4.599575E1,4.969011E2,1.0022624E2,5.398437E1,1.3149022E2,2.674256E2,4.89884E1,4.299217E1,9.323024E1,1.9719493E2,2.3500224E2,3.4639236E2,2.2007973E2,3.7397296E2,4.990602E0,1.5731476E1,3.1303894E3,5.863487E1,1.9874739E2,1.1800161E3,1.5728928E1,2.3630286E3,1.6212563E1,4.8886024E1,3.4784955E2,5.493649E0,2.3799155E3,6.944464E1,1.8237005E1,7.634174E2,1.2487957E0,1.7480199E0,1.0381747E3,6.4903245E0,1.123907E1,1.3735404E1,1.9973749E0,8.164005E1,1.2261277E2,7.841872E1,2.784493E2,1.2422206E2,1.3996269E1,5.8232983E1,1.7218655E2,3.246837E3,8.0706085E1,1.404183E2,5.2474213E0,8.291995E1,5.2958324E1,2.892913E2,2.2478423E0,2.497682E0,3.1214931E1,5.494799E0,5.832225E2,5.997008E0,1.8249548E1,4.249783E0,8.5796625E2,2.3247452E1,2.4240312E3,2.789407E2,1.0749152E1,8.248733E0,1.124925E1,1.33483E2,3.748691E1,5.9226006E1,1.7318773E2,1.7993147E2,3.833784E2,3.606729E2,1.6327247E3,2.6690487E1,3.4145633E2,8.3898303E2,2.2450843E0,1.7473105E0,3.4958348E0,4.2450256E1,1.2474736E0,1.2485629E0,5.4898424E0,1.247696E0,1.941593E2,5.7507495E3,2.3727255E2,5.690135E2,8.239011E0,6.741087E0,3.7449536E0,1.7977463E1,2.7062488E2,2.0472279E1,4.6212436E2,4.7158694E2,3.136348E2,2.0931068E2,3.8999918E2,8.943273E2,2.246774E0,2.4970436E0,1.4982121E0,4.9932685E0,2.7464275E0,1.2481042E0,1.2478863E0,1.4975778E0,2.5206758E1,1.4971659E0,1.4961442E0,1.2469826E0,2.64501E1,2.1958467E1,4.8743286E1,2.224628E1,3.599166E1,2.0696213E2,1.9448042E2,2.9743868E1,4.90692E2,1.3746099E3,7.748899E0,6.7491136E0,1.999377E1,2.4248648E1,5.4994946E0,1.1997422E1,1.8499123E1,6.5820825E2,2.7490675E0,8.994779E0,2.2498577E0,4.2494636E0,8.403832E2,2.874018E1,5.265659E2,3.6802224E3,6.74742E0,1.2495395E0,4.9603818E2,2.2489164E0,1.2494594E0,1.2743346E1,1.4729387E3,1.5595321E3,4.9979196E0,1.5246247E1,1.8738607E1,4.996963E0,1.0560437E3,3.698183E1,1.2488694E0,2.7475128E0,8.497996E0,7.546531E1,6.806113E2,3.2494345E0,2.7479014E0,6.4945326E0,2.007204E2,2.916674E2,5.25722E2,1.382428E2,1.2721362E2,1.0247973E1,2.2718414E2,1.5495883E1,2.3623904E2,4.589715E2,1.7497257E0,7.749215E0,7.99708E0,6.322859E1,4.2487545E0,7.4484665E1,1.6744434E2,6.2405696E0,1.99931E0,7.998173E0,2.349192E1,1.9993335E0,5.5995026E1,3.2422873E2,8.999061E0,2.9745333E1,4.349581E1,2.4999402E0,4.94152E2,2.7490838E0,9.247841E1,7.7478337E0,9.996716E0,4.3987656E1,1.0424236E2,2.7247856E1,1.4999421E0,2.6592566E2,4.199097E1,6.997429E0,2.3994455E1,1.8997713E1,3.34976E1,5.973264E1,6.398751E1,1.3320743E2],"tree_param":{"num_deleted":"0","num_feature":"17","num_nodes":"437","size_leaf_vector":"1"}},{"base_weights":[2.03569E-3,-4.8521066E-1,9.500181E-1,-6.386707E-1,9.545834E-3,1.092274E0,5.024675E-1,-5.437281E-1,-8.48268E-1,-1.3772255E-1,2.4315086E-1,8.628493E-1,1.1991594E0,3.375057E-1,7.775502E-1,-7.5036436E-1,-3.8625854E-1,-9.52552E-1,-8.003421E-1,-6.486506E-2,-5.2420014E-1,5.863826E-3,3.5096246E-1,7.385924E-1,9.731113E-1,1.1238562E0,1.3590368E0,2.9680404E-1,6.222446E-1,7.0725346E-1,9.57312E-1,-8.326557E-1,-6.6138256E-1,-2.4480765E-1,-6.1228025E-1,-1.0308136E0,-9.0306437E-1,1.2176461E0,-8.15306E-1,-3.9229304E-1,6.412358E-2,-6.635704E-1,-3.5657266E-1,1.1123936E-1,-3.437249E-1,3.71378E-1,-6.434547E-1,7.899139E-1,5.9107906E-1,1.0804332E0,9.234441E-1,1.1655395E0,1.0580057E0,1.2914894E0,1.4882104E0,7.8356646E-2,3.390301E-1,6.54032E-1,-5.8775204E-1,8.2496893E-1,2.7613452E-1,7.763313E-1,1.1942439E0,-9.3057257E-1,-7.8037804E-1,-6.4528966E-1,-1.0570695E0,-4.06212E-1,-6.096832E-2,-6.730556E-1,-5.2415097E-1,-1.0182486E0,-4.6216477E-2,-8.825445E-1,-1.304236E0,-8.918245E-1,1.6935047E0,-7.9811823E-1,-9.651474E-1,-6.379184E-1,-3.0390266E-1,2.2180206E-1,-2.4332248E-2,-4.091804E-1,-7.891035E-1,-3.2542855E-1,-1.2502897E0,2.1502349E-1,-8.833015E-2,-2.499011E-1,-9.0127015E-1,3.9143476E-1,-3.0085126E-1,1.00108586E-1,-8.450268E-1,1.0390512E0,7.733847E-1,6.224256E-1,-9.541065E-3,1.0863183E0,-2.710463E-2,9.304846E-1,2.7735364E-1,1.1389122E0,1.2920113E0,1.0097861E0,1.1170212E0,1.1284032E0,1.360554E0,1.510407E0,1.2983682E0,7.464434E-1,2.6440198E-2,6.82404E-1,2.870788E-1,4.2563996E-1,8.495461E-1,-8.7353265E-1,9.637298E-3,5.979841E-1,9.1868746E-1,-1.030413E-1,3.450678E-1,-1.5398587E-1,8.137583E-1,1.2135911E0,1.9035989E-1,-1.0472457E0,-8.5822237E-1,-3.0362406E-1,-7.9228556E-1,-6.623555E-1,-5.4251474E-1,-1.1016368E0,-8.627245E-3,-3.8690782E-1,-6.9859934E-1,3.8374317E-1,-1.1214552E-1,-7.8541505E-1,-6.165344E-1,-4.9625954E-1,-8.0645466E-1,-1.0622877E0,-8.531531E-1,-1.1477699E0,-8.620936E-1,-1.1475255E0,-1.5764912E0,-4.132736E-2,2.8375851E-2,-7.0064175E-3,1.7692382E0,-7.9465544E-1,-1.4026579E0,-1.1084853E0,-8.418689E-1,-3.372215E-1,-8.0461276E-1,5.0971437E-1,-3.1588715E-1,8.279279E-2,3.6597532E-1,-1.204955E-1,6.855086E-2,-6.5313745E-1,-1.5095508E-1,-4.1840616E-1,-8.339729E-1,-6.8531275E-1,-2.639682E-1,-4.6187077E-2,-5.082029E-1,5.936736E-1,1.7822272E-1,-4.9469233E-2,-5.588743E-1,2.946883E-1,-3.1217447E-1,-1.0211284E0,-4.5256417E-2,5.7260907E-1,3.3128843E-1,-6.147197E-1,2.9420635E-2,-8.77586E-1,5.4575837E-1,-5.442919E-1,-1.2765924E0,-4.313854E-2,1.0689213E0,9.1829276E-1,7.468805E-1,1.21446736E-1,6.570641E-1,2.4062951E-1,-6.454617E-1,1.1903206E0,1.0118657E0,8.8410956E-1,1.0287412E0,-1.0753844E0,6.248556E-1,1.1663883E0,9.883974E-1,9.4073635E-1,1.3435863E0,9.0853506E-1,1.0688871E0,1.1214952E0,2.3451066E-1,1.2504375E0,9.073919E-1,1.3746983E0,9.002968E-1,1.4616623E0,1.6012418E0,1.1335673E0,1.4919268E0,1.3114316E0,2.4749689E-1,-8.5625224E-2,2.6493382E-1,-1.5780176E-1,7.0211697E-1,1.6057466E-1,3.7402514E-1,1.0816941E0,3.156003E-1,8.704058E-1,-1.1644592E-1,-3.6307596E-2,-3.7947574E-1,7.669786E-1,2.984618E-1,4.8249564E-1,9.5451075E-1,-5.004123E-1,2.2963388E-1,9.337279E-1,2.7794534E-1,-3.2246992E-2,1.9578849E-1,7.0225346E-1,1.0660516E0,1.2392354E0,4.2500308E-1,-1.2978266E-2,2.5732467E-2,-3.7317496E-2,-2.9563183E-2,4.6755205E-4,-2.6005886E-2,-2.5058119E-2,4.828989E-2,-2.3093306E-2,-3.0646155E-2,-1.955268E-2,-2.5146209E-2,-1.4599486E-2,-2.259397E-2,-7.0057283E-3,-3.3915557E-2,-2.542892E-2,1.2362994E-2,-2.884527E-2,-1.14213675E-2,-9.471836E-3,-2.2670548E-2,8.919747E-3,5.523636E-2,-5.880697E-3,2.2217827E-3,-1.2559716E-2,-2.486924E-2,3.5200357E-2,-1.9164756E-2,-2.76337E-2,-1.44493235E-2,-3.222427E-2,-2.1319594E-2,-1.6980946E-2,-3.2369584E-2,-4.1356008E-3,-2.6515743E-2,-3.0300403E-2,-5.0476182E-2,-2.4159595E-2,-2.7752794E-2,-4.439431E-2,-2.6453815E-2,-1.3907777E-2,-4.9109045E-2,-2.1841917E-2,2.316263E-2,2.0844664E-2,5.4654267E-2,-2.4791019E-2,-2.1920824E-2,-4.5878336E-2,-2.5847133E-2,1.4263292E-2,-3.3568252E-2,-1.2587272E-2,-2.6506336E-2,-2.444583E-2,-5.464985E-3,-2.506367E-2,6.5094577E-3,3.8119156E-2,1.0654986E-3,-8.257788E-3,-1.3889981E-2,2.9815747E-3,-2.868705E-2,-5.5875763E-4,1.1917208E-2,-9.884657E-3,-1.8479548E-3,3.9367527E-3,-9.129128E-3,-2.3879217E-2,4.7609885E-3,2.12353E-3,-2.072829E-2,-3.4298698E-4,-2.3263969E-2,-4.2394597E-2,-2.3458699E-2,1.994166E-3,-2.4016043E-2,-6.681156E-3,-2.50531E-2,2.292307E-3,-2.7690245E-2,2.0932913E-2,-7.688875E-3,-5.72051E-3,6.6852574E-3,-2.1227242E-3,3.4322202E-2,-2.8561847E-4,-2.8758286E-2,1.3876161E-2,-1.902885E-2,-2.9657332E-2,-7.44752E-3,-7.1854135E-3,-3.422892E-2,1.8290054E-2,-2.5878571E-2,1.9881878E-2,1.196531E-2,1.0377613E-2,-6.2476654E-5,1.0080196E-2,-2.2377457E-2,5.894177E-3,-3.6600243E-2,-3.464985E-2,-5.368468E-3,-8.653476E-3,2.6152726E-2,-2.4191048E-2,1.6647867E-3,-4.6888307E-2,-2.084257E-2,-7.709347E-3,5.6960583E-3,3.2693245E-2,-7.411257E-3,2.1957578E-2,3.3446252E-2,1.6905082E-2,2.3485737E-2,-4.322339E-2,8.5787885E-3,5.7799895E-3,2.0774957E-2,-1.1058983E-2,1.991273E-2,1.0214774E-2,-3.0470427E-2,3.184625E-2,3.9470326E-2,-2.7656917E-2,3.1120047E-2,2.8074225E-2,2.2604419E-2,2.9038034E-2,3.6960527E-2,-3.841161E-2,-1.2588183E-2,-2.6362833E-2,2.9248303E-2,3.328598E-2,3.676059E-2,2.9931735E-2,-1.12001505E-2,3.5862137E-2,-3.245439E-2,4.0721692E-2,-1.9728348E-3,2.8224716E-2,-4.405438E-2,-2.1666646E-2,3.225819E-2,3.4140747E-2,2.7241388E-2,-2.8409231E-2,2.4264224E-2,4.3744486E-2,3.55138E-2,-1.7122025E-2,3.173236E-2,4.169774E-2,3.2930754E-2,2.8715767E-2,-1.5586942E-3,4.4065304E-2,1.6749255E-2,5.022119E-2,4.4347584E-2,3.5699762E-2,1.7521018E-2,4.7987055E-2,2.2338444E-2,4.867143E-2,-4.3350337E-3,1.696955E-2,-7.954165E-3,-1.957085E-3,-3.4188252E-2,1.6578885E-2,-3.786698E-3,6.2055457E-3,-1.7446173E-2,1.9582687E-2,3.174674E-2,1.7173901E-2,3.676259E-3,1.967511E-2,5.1650344E-3,3.6858294E-2,-4.994267E-3,5.449922E-3,2.8816631E-2,2.6874185E-2,3.5217186E-3,-2.7430175E-2,1.9610746E-2,6.345248E-3,-3.1907786E-2,-1.6881512E-2,2.4135105E-2,-1.3158576E-3,1.811767E-2,1.735302E-2,-3.927514E-2,2.914839E-2,2.4489784E-3,-2.176082E-2,9.8122945E-3,1.2666196E-2,-3.211267E-2,8.6029405E-3,3.883061E-2,-1.4357797E-2,9.481149E-3,2.133314E-2,-9.231149E-3,2.6881378E-2,1.0462301E-2,3.4369916E-2,-1.4365389E-2,3.9337408E-2,3.1897306E-2,2.2472553E-2,-2.0991944E-2],"categories":[],"categories_nodes":[],"categories_segments":[],"categories_sizes":[],"default_left":[0,0,0,0,0,0,0,0,0,0,0,0,0,0,0,0,0,0,0,0,0,0,0,0,0,0,0,0,0,0,0,0,0,0,0,0,0,0,0,0,0,0,0,0,0,0,0,0,0,0,0,0,0,0,0,0,0,0,0,0,0,0,0,0,0,0,0,0,0,0,0,0,0,0,0,0,0,0,0,0,0,0,0,0,0,0,0,0,0,0,0,0,0,0,0,0,0,0,0,0,0,0,0,0,0,0,0,0,0,0,0,0,0,0,0,0,0,0,0,0,0,0,0,0,0,0,0,0,0,0,0,0,0,0,0,0,0,0,0,0,0,0,0,0,0,0,0,0,0,0,0,0,0,0,0,0,0,0,0,0,0,0,0,0,0,0,0,0,0,0,0,0,0,0,0,0,0,0,0,0,0,0,0,0,0,0,0,0,0,0,0,0,0,0,0,0,0,0,0,0,0,0,0,0,0,0,0,0,0,0,0,0,0,0,0,0,0,0,0,0,0,0,0,0,0,0,0,0,0,0,0,0,0,0,0,0,0,0,0,0,0,0,0,0,0,0,0,0,0,0,0,0,0,0,0,0,0,0,0,0,0,0,0,0,0,0,0,0,0,0,0,0,0,0,0,0,0,0,0,0,0,0,0,0,0,0,0,0,0,0,0,0,0,0,0,0,0,0,0,0,0,0,0,0,0,0,0,0,0,0,0,0,0,0,0,0,0,0,0,0,0,0,0,0,0,0,0,0,0,0,0,0,0,0,0,0,0,0,0,0,0,0,0,0,0,0,0,0,0,0,0,0,0,0,0,0,0,0,0,0,0,0,0,0,0,0,0,0,0,0,0,0,0,0,0,0,0,0,0,0,0,0,0,0,0,0,0,0,0,0,0,0,0,0,0,0,0,0,0,0,0,0,0,0,0,0,0,0,0,0,0,0,0,0,0,0,0,0,0,0,0,0,0,0,0,0,0,0,0,0,0,0,0,0,0,0,0,0,0,0,0,0,0,0,0,0,0,0,0,0,0,0,0,0,0,0,0,0,0,0,0,0,0,0,0,0,0,0,0,0,0,0,0,0,0,0,0,0,0],"id":3,"left_children":[1,3,5,7,9,11,13,15,17,19,21,23,25,27,29,31,33,35,37,39,41,43,45,47,49,51,53,55,57,59,61,63,65,67,69,71,73,75,77,79,81,83,85,87,89,91,93,95,97,99,101,103,105,107,109,111,113,115,117,119,121,123,125,127,129,131,133,135,137,139,141,143,-1,145,147,149,151,153,155,157,159,161,163,165,167,169,171,173,175,177,179,181,183,185,187,189,191,193,195,197,-1,199,201,203,205,207,209,211,213,215,217,219,221,223,225,227,229,231,-1,233,235,237,239,241,243,245,247,249,251,253,255,257,259,261,263,265,267,269,271,273,275,277,279,281,283,285,287,289,291,-1,293,-1,295,297,299,301,303,305,307,309,311,313,315,317,319,321,323,325,327,329,331,-1,333,335,337,339,341,343,345,347,349,351,353,355,357,359,361,363,365,367,369,371,373,375,377,379,381,383,385,387,389,391,393,395,397,399,401,403,405,407,409,411,413,415,417,419,421,423,425,427,429,431,433,435,437,439,441,443,445,447,449,-1,451,453,455,457,459,461,463,465,467,-1,469,471,473,475,477,-1,-1,-1,-1,-1,-1,-1,-1,-1,-1,-1,-1,-1,-1,-1,-1,-1,-1,-1,-1,-1,-1,-1,-1,-1,-1,-1,-1,-1,-1,-1,-1,-1,-1,-1,-1,-1,-1,-1,-1,-1,-1,-1,-1,-1,-1,-1,-1,-1,-1,-1,-1,-1,-1,-1,-1,-1,-1,-1,-1,-1,-1,-1,-1,-1,-1,-1,-1,-1,-1,-1,-1,-1,-1,-1,-1,-1,-1,-1,-1,-1,-1,-1,-1,-1,-1,-1,-1,-1,-1,-1,-1,-1,-1,-1,-1,-1,-1,-1,-1,-1,-1,-1,-1,-1,-1,-1,-1,-1,-1,-1,-1,-1,-1,-1,-1,-1,-1,-1,-1,-1,-1,-1,-1,-1,-1,-1,-1,-1,-1,-1,-1,-1,-1,-1,-1,-1,-1,-1,-1,-1,-1,-1,-1,-1,-1,-1,-1,-1,-1,-1,-1,-1,-1,-1,-1,-1,-1,-1,-1,-1,-1,-1,-1,-1,-1,-1,-1,-1,-1,-1,-1,-1,-1,-1,-1,-1,-1,-1,-1,-1,-1,-1,-1,-1,-1,-1,-1,-1,-1,-1,-1,-1,-1,-1,-1,-1,-1,-1,-1,-1,-1,-1,-1,-1,-1,-1,-1,-1,-1,-1,-1,-1,-1,-1,-1,-1,-1,-1,-1,-1,-1,-1,-1,-1,-1,-1,-1,-1,-1,-1,-1],"loss_changes":[2.5285457E4,2.745294E3,1.1826602E3,5.487246E2,2.9455563E2,3.447578E2,2.0322424E2,6.178418E2,4.222998E1,1.4783566E2,8.468985E1,6.0732178E1,1.1425391E2,3.232318E1,2.055597E1,5.9600586E1,3.4459338E2,9.538574E0,1.7914868E2,1.866866E2,1.9219986E1,3.8175434E1,4.6451508E1,1.5529175E1,1.1652588E1,1.6728516E1,2.4904297E1,2.2628754E1,1.3842346E1,6.126703E1,1.920636E1,2.1100098E1,2.4481567E1,1.9682175E2,2.1875E1,5.0931396E0,1.2547974E1,4.5504784E1,1.4313477E1,2.6927048E1,4.4239613E1,1.4161804E1,1.0176838E1,1.6510834E1,1.233073E1,3.0199677E1,7.002941E0,5.639221E0,1.03485565E1,9.678955E0,7.1534424E0,1.1989746E1,6.1206055E0,2.1289307E1,2.459961E0,1.38249E1,3.6514816E1,1.488382E1,2.7441492E0,1.968811E1,6.8679695E0,9.4934845E0,3.6820984E0,1.1585449E1,1.5575562E1,6.305298E0,7.133621E0,1.966742E1,7.065581E1,1.5091919E1,1.2972351E1,6.4956055E0,0E0,7.61438E0,1.5565643E0,3.9377413E0,5.682518E0,9.896973E0,9.632324E0,1.6252762E1,9.136826E0,2.2814102E1,1.816334E1,9.473415E0,4.6846924E0,7.976246E0,1.8907928E0,7.1975994E0,4.9665728E0,7.1064873E0,3.4616718E0,2.342334E1,6.77742E0,5.157817E0,4.0320263E0,3.098671E0,4.9644165E0,8.980362E0,4.6468706E0,4.550415E0,0E0,6.4328613E0,9.597829E0,1.2537598E1,1.1196045E1,7.4801025E0,4.222412E0,1.5282898E1,7.9975586E0,1.7912598E0,2.0392761E0,7.7785625E0,9.949377E0,4.5780487E0,1.9619614E1,1.117112E1,3.7877045E0,7.857566E-1,0E0,1.3988159E1,1.0031677E1,5.532481E0,8.489206E0,3.833055E0,6.5321045E0,3.4669495E0,2.4480295E0,5.5999146E0,6.947571E0,7.2048904E1,1.323645E1,5.519287E0,6.0654297E0,3.4124298E0,2.9053981E0,1.1438232E1,4.515854E0,3.981079E1,4.3483665E1,1.270871E1,6.6041016E1,9.170258E0,3.1118317E0,6.0151367E0,4.698105E0,6.4436646E0,4.536621E0,3.4403992E0,1.0006714E0,0E0,2.8086216E0,0E0,7.029877E-1,1.0009277E1,6.453514E-1,5.0585938E0,5.3598175E0,8.686576E0,6.841202E0,4.9144516E0,5.298172E0,1.0122449E1,6.7320404E0,1.2276828E1,2.421624E1,9.151634E0,9.042958E0,5.0309453E0,6.997513E0,4.6587486E0,7.2758026E0,0E0,1.2795082E0,4.2484074E0,7.9289846E0,6.5189905E0,4.544944E0,3.6831307E0,7.801077E0,2.5314522E0,3.3339517E0,8.171783E0,7.9479065E0,4.426467E0,7.0704308E0,5.1925564E-1,2.4251182E0,3.692603E0,1.2822571E0,2.2306918E-1,2.79216E0,7.3583984E0,7.7993164E0,9.405022E0,7.8988647E0,5.6559315E0,3.3545418E0,3.5173645E0,2.261734E1,6.7353516E0,5.118103E0,3.387499E-2,9.142068E0,8.006592E0,6.946228E0,4.836431E1,1.1710449E1,4.1844147E1,1.0911316E1,2.9534912E0,5.5118756E0,3.6659546E0,4.9538437E1,4.2717285E0,2.4983978E0,3.1940918E0,3.4936523E-1,1.3926926E0,2.8807373E0,6.2319336E0,2.8406267E0,5.371931E0,1.3458618E1,1.2018328E0,3.944748E0,1.1374317E1,6.0165924E1,4.329382E0,1.1744304E1,3.322235E0,3.5158806E0,0E0,2.0403016E0,9.380402E0,1.079137E1,9.864421E0,9.168396E0,3.7719846E0,6.208126E0,4.8175163E0,5.9201603E0,0E0,2.5530522E0,1.2184151E1,1.0067589E1,1.0231934E0,3.3460398E0,0E0,0E0,0E0,0E0,0E0,0E0,0E0,0E0,0E0,0E0,0E0,0E0,0E0,0E0,0E0,0E0,0E0,0E0,0E0,0E0,0E0,0E0,0E0,0E0,0E0,0E0,0E0,0E0,0E0,0E0,0E0,0E0,0E0,0E0,0E0,0E0,0E0,0E0,0E0,0E0,0E0,0E0,0E0,0E0,0E0,0E0,0E0,0E0,0E0,0E0,0E0,0E0,0E0,0E0,0E0,0E0,0E0,0E0,0E0,0E0,0E0,0E0,0E0,0E0,0E0,0E0,0E0,0E0,0E0,0E0,0E0,0E0,0E0,0E0,0E0,0E0,0E0,0E0,0E0,0E0,0E0,0E0,0E0,0E0,0E0,0E0,0E0,0E0,0E0,0E0,0E0,0E0,0E0,0E0,0E0,0E0,0E0,0E0,0E0,0E0,0E0,0E0,0E0,0E0,0E0,0E0,0E0,0E0,0E0,0E0,0E0,0E0,0E0,0E0,0E0,0E0,0E0,0E0,0E0,0E0,0E0,0E0,0E0,0E0,0E0,0E0,0E0,0E0,0E0,0E0,0E0,0E0,0E0,0E0,0E0,0E0,0E0,0E0,0E0,0E0,0E0,0E0,0E0,0E0,0E0,0E0,0E0,0E0,0E0,0E0,0E0,0E0,0E0,0E0,0E0,0E0,0E0,0E0,0E0,0E0,0E0,0E0,0E0,0E0,0E0,0E0,0E0,0E0,0E0,0E0,0E0,0E0,0E0,0E0,0E0,0E0,0E0,0E0,0E0,0E0,0E0,0E0,0E0,0E0,0E0,0E0,0E0,0E0,0E0,0E0,0E0,0E0,0E0,0E0,0E0,0E0,0E0,0E0,0E0,0E0,0E0,0E0,0E0,0E0,0E0,0E0,0E0,0E0,0E0,0E0,0E0,0E0,0E0,0E0,0E0,0E0,0E0,0E0,0E0,0E0,0E0,0E0,0E0,0E0,0E0,0E0,0E0,0E0,0E0,0E0,0E0,0E0],"parents":[2147483647,0,0,1,1,2,2,3,3,4,4,5,5,6,6,7,7,8,8,9,9,10,10,11,11,12,12,13,13,14,14,15,15,16,16,17,17,18,18,19,19,20,20,21,21,22,22,23,23,24,24,25,25,26,26,27,27,28,28,29,29,30,30,31,31,32,32,33,33,34,34,35,35,36,36,37,37,38,38,39,39,40,40,41,41,42,42,43,43,44,44,45,45,46,46,47,47,48,48,49,49,50,50,51,51,52,52,53,53,54,54,55,55,56,56,57,57,58,58,59,59,60,60,61,61,62,62,63,63,64,64,65,65,66,66,67,67,68,68,69,69,70,70,71,71,73,73,74,74,75,75,76,76,77,77,78,78,79,79,80,80,81,81,82,82,83,83,84,84,85,85,86,86,87,87,88,88,89,89,90,90,91,91,92,92,93,93,94,94,95,95,96,96,97,97,98,98,99,99,101,101,102,102,103,103,104,104,105,105,106,106,107,107,108,108,109,109,110,110,111,111,112,112,113,113,114,114,115,115,116,116,117,117,119,119,120,120,121,121,122,122,123,123,124,124,125,125,126,126,127,127,128,128,129,129,130,130,131,131,132,132,133,133,134,134,135,135,136,136,137,137,138,138,139,139,140,140,141,141,142,142,143,143,144,144,145,145,146,146,147,147,148,148,150,150,152,152,153,153,154,154,155,155,156,156,157,157,158,158,159,159,160,160,161,161,162,162,163,163,164,164,165,165,166,166,167,167,168,168,169,169,170,170,172,172,173,173,174,174,175,175,176,176,177,177,178,178,179,